{"learner":{"attributes":{"best_iteration":"34","best_score":"4501.731914255116"},"feature_names":["state","is_weekend","is_holiday","day","month","year","weekday","expected_volume","expected_volume_lag_1","expected_volume_lag_7","expected_volume_lag_14","expected_volume_lag_28","expected_volume_roll_mean_7","expected_volume_roll_mean_14","expected_volume_roll_mean_28"],"feature_types":["int","int","int","int","int","int","int","int","float","float","float","float","float","float","float"],"gradient_booster":{"model":{"gbtree_model_param":{"num_parallel_tree":"1","num_trees":"55"},"iteration_indptr":[0,1,2,3,4,5,6,7,8,9,10,11,12,13,14,15,16,17,18,19,20,21,22,23,24,25,26,27,28,29,30,31,32,33,34,35,36,37,38,39,40,41,42,43,44,45,46,47,48,49,50,51,52,53,54,55],"tree_info":[0,0,0,0,0,0,0,0,0,0,0,0,0,0,0,0,0,0,0,0,0,0,0,0,0,0,0,0,0,0,0,0,0,0,0,0,0,0,0,0,0,0,0,0,0,0,0,0,0,0,0,0,0,0,0],"trees":[{"base_weights":[1.55369625E1,-4.1915327E3,8.3823545E3,-6.6721533E3,-9.993338E2,5.9076504E3,1.4758508E4,-9.68407E3,-5.5353716E3,-2.324902E3,1.2430796E2,4.1250654E3,7.94553E3,1.3611485E4,2.2427457E4,-9.172222E3,-1.2359128E3,-6.2869673E3,-4.498349E3,-2.715987E3,-1.2680549E3,-5.4834753E2,1.2338623E3,2.9122837E3,5.029746E3,6.306384E3,8.663161E3,1.1726687E4,1.4693823E4,2.260753E3,4.461005E2,-1.000777E3,-8.382839E2,-6.818427E3,-5.943987E3,-4.4408374E3,-7.134777E2,-2.2542676E3,-2.961913E3,9.690505E2,-1.3574448E3,-8.53979E2,-1.463138E2,1.0278021E3,6.1794756E3,2.786004E3,5.251715E3,4.5235415E3,5.6676226E3,4.451635E3,6.677332E3,7.6156196E3,9.4841045E3,1.2211683E4,8.766978E3,1.4039048E4,1.6938646E4,-6.948526E3,-4.344127E3,-5.8603716E3,-8.0419907E3,-4.017484E3,-4.6364077E3,-2.678568E3,-1.2453635E3,-3.5417114E3,-2.7503381E3,1.2008093E3,-1.659855E3,7.6560925E2,-9.47563E2,3.2382568E2,-5.4240247E2,6.8161743E3,9.287493E2,2.4754255E3,1.5746757E3,2.8875483E3,5.6194666E2,1.5644078E3,6.265932E3,4.288913E3,7.360325E3,7.0806704E3,5.057777E3,4.8307095E3,3.0130999E3,4.8924575E3,6.968197E3,8.764874E3,6.997883E3,6.754961E3,9.921758E3,1.2385435E4,5.5430083E3,6.537068E3,1.0709742E4,1.3531954E3,1.6149854E4,3.7637341E3,1.5759024E4,-7.0644585E3,-4.9124688E3,1.4465073E3,-5.33457E3,-1.8817427E3,-5.877269E3,-2.0346602E3,-8.567254E2,-3.000298E3,-4.283115E3,-6.926585E2,-4.6759634E3,-7.18675E2,-2.9326814E3,6.789376E2,-1.7211941E3,1.2635073E3,-3.6969507E3,-1.3276763E3,-2.9278582E3,1.066434E4,-8.577327E1,2.6640912E2,-1.8009644E3,-7.661673E2,7.0842573E3,-1.1463939E3,-1.4415215E2,5.655135E1,5.6153413E3,4.312005E2,-6.0475903E2,1.4606078E3,1.6797004E3,9.599505E2,8.7799866E2,4.121748E2,3.8902942E2,2.5075825E3,3.4693538E3,1.1381757E3,-9.333922E2,2.2330049E2,8.390073E2,9.212408E3,3.9327864E3,4.372336E3,1.2292585E3,1.3099259E4,2.921009E3,4.0850718E3,8.009055E3,-2.3304951E2,5.1248027E3,3.6580093E3,5.909652E3,5.1633984E1,3.5105642E3,5.531096E3,2.0951511E3,7.271914E3,4.5545093E3,4.893884E3,9.096264E3,7.0936304E3,3.517675E2,1.0813409E4,5.275603E3,1.4032759E4,9.317749E3,1.1623058E4,1.4605685E4,9.100489E0,6.615208E2,7.280723E3,2.3000073E3,1.1824373E3,6.115608E2,1.630376E3,4.6890048E2,1.1235186E4,1.695797E4,-6.2736753E3,-7.2507184E2,1.2568414E3,-6.6959906E2,-4.2659952E2,4.7726733E2,-5.769366E2,-2.2617427E3,-4.6476602E2,3.208005E2,-5.5437695E3,-6.130057E3,5.445049E1,-3.596495E2,-4.865507E3,-2.356725E2,-4.915131E3,-3.9134282E3,-2.5199922E2,4.222005E2,-4.9387417E3,-4.137917E3,-3.5534202E3,8.6300903E2,-4.5223657E3,-2.6982383E3,-2.1815469E3,4.8565083E3,9.612573E2,-1.8978336E3,7.518505E2,-3.3276602E2,9.0300653E2,-3.7990005E3,-2.2378542E3,1.9743764E2,-2.6382385E3,-3.2716655E3,1.5715005E3,2.8150488E1,2.1303088E3,-1.6625624E3,2.8372078E3,-9.2635474E2,-2.4179775E3,-1.3705507E3,1.3363399E2,-1.135591E3,1.2930005E3,8.2567316E2,-1.963649E3,-9.9572504E2,8.592402E2,-7.475021E2,4.7368674E2,-1.5475106E3,1.5440078E3,1.2986005E3,-2.8208665E3,-4.738046E2,-9.7432684E2,3.408673E2,1.1077335E3,-7.142731E2,-7.749922E2,3.1740048E2,2.0941572E3,3.1220737E3,4.638682E3,2.4209656E3,-9.8166016E2,1.6603088E3,8.063399E1,-2.3619934E3,-6.594952E1,1.5583398E2,3.8883398E2,1.1465673E3,5.0078415E2,1.3370073E3,2.8077236E3,4.555763E3,-1.0574951E2,1.7070085E2,2.7415048E2,1.4187294E3,3.654231E3,5.410073E2,1.1111512E3,5.7583086E3,4.920049E1,8.172428E3,5.3895405E3,2.6535093E3,4.3885474E3,1.0270078E3,1.314005E2,6.162086E3,3.6962585E2,1.0125049E2,5.907962E3,1.0493398E3,-1.3854951E2,2.9061748E3,7.3318022E3,-4.0649513E1,5.2167314E3,-9.3699347E2,5.6198413E3,1.8106732E2,8.321755E3,1.0884715E4,6.558109E3,8.137943E3,5.2578076E2,1.3640842E4,1.4070082E3,5.9398984E3,1.0181199E4,2.2389008E4,7.991157E3,1.0212935E4,1.2173432E4,8.676923E3,3.2512573E2,1.5511921E4,7.7847783E3,3.640049E1,2.7396732E2,4.9050488E1,1.2291866E3,4.7280075E2,2.0332572E3,1.4987094E3,2.0855049E2,-6.41874E3,-3.5629935E2,4.5575073E3,-3.7636603E2,1.1220049E2,-5.5706094E3,-1.3249935E3,-5.3469404E3,-6.2813794E3,-1.01549515E2,-4.9599908E2,3.6146335E3,-2.2734575E3,-8.814951E1,-4.965165E3,-1.1428252E3,-4.022999E3,-5.008819E3,-2.2794912E3,-1.9586833E3,-4.2970757E3,-4.352792E2,-1.03666016E2,-1.9738252E3,2.8827585E3,-5.038068E2,-1.7157427E3,-9.8536584E2,-2.9313298E3,-8.4951174E-1,-2.4521165E3,-2.948995E2,7.0074077E3,2.4467317E2,1.5555049E2,-3.671264E3,-1.3757466E3,3.040005E2,-1.6854951E2,-3.8358066E3,-9.599512E0,-2.8778032E3,-4.554202E2,7.459005E2,-9.3491406E2,1.4275732E2,-2.69636E3,-1.6582638E3,-3.406953E3,4.8945312E2,8.449005E2,-2.6381912E3,6.212078E2,3.4292575E2,2.3450489E1,-1.4325912E3,2.0680049E2,-2.839053E3,-4.601909E2,-1.1454431E3,-3.4151729E3,-1.4511448E3,6.1033985E1,1.4305049E2,-1.9199512E1,-4.1330655E2,-3.1589907E3,-1.3722357E3,-6.4521344E2,2.052177E2,5.8050063E3,-1.1401906E3,8.6267535E2,-2.7311768E2,1.4403667E3,-3.7638489E3,-6.495171E2,1.7847574E2,2.905049E1,-3.547492E2,-4.273268E2,8.791398E2,-7.334988E2,-1.1709951E2,-2.9049513E1,1.0430448E3,1.0710005E3,-9.6713E2,2.1825073E3,3.180049E1,-1.1277427E3,1.4575917E3,2.8183667E3,3.3771504E3,4.6800854E2,5.09397E3,1.1563835E3,-9.053922E2,2.6430095E3,-2.1084952E2,6.360049E1,9.4525854E2,3.013673E2,-6.379951E1,-2.904995E2,1.77234E2,1.5504884E0,4.1585093E3,1.3598091E3,1.0262407E4,4.3989434E3,3.8831335E2,9.115049E1,-8.636602E1,2.3775049E2,-1.17592186E2,2.788673E2,6.389634E2,2.1553398E2,1.4173007E3,7.5340337E3,5.880073E2,5.4983325E3,-1.6642427E3,3.7779321E3,1.8176732E3,4.6907364E2,-1.1266016E2,1.8243399E2,1.489005E2,6.427426E2,5.665049E1,6.1467095E3,1.334005E2,2.4000488E1,3.5092078E2,-5.449512E0,9.406656E3,6.9737827E3,2.0435073E3,5.7151426E3,3.965049E1,-1.8019951E2,9.980049E1,6.344608E2,8.434989E3,1.3300049E2,4.6802573E2,1.1879938E3,7.4948525E3,5.4927744E3,8.454135E2,4.673675E3,1.5319607E4,2.623505E2,2.2700078E3,-1.4539952E2,6.15485E2,2.1686731E2,5.811508E2,1.1183509E4,2.4617578E4,3.394505E2,8.376355E3,4.5332817E3,2.2459004E3,9.921295E3,1.225499E4,1.9680049E2,2.4326732E2,9.155771E3,1.9036822E4,1.1727167E4,9.027759E2,4.8300082E2,-6.603773E2,-1.6222427E2,5.313674E2,1.1445049E2,-3.7379077E2,-5.635262E2,1.8120049E2,-3.7994952E2,-3.3871338E2,-5.8169476E2,-3.3916586E2,-6.3231036E2,-1.4557426E2,6.948008E2,-4.0557187E2,2.1022078E2,-2.3992427E2,-5.0534738E2,1.805049E1,-1.4435922E2,-4.3764038E2,-3.2961334E2,-6.354465E2,-4.903746E2,-3.1682416E2,8.503399E1,-3.517158E2,8.371505E2,-3.8973846E2,-5.0577048E2,-2.6419928E2,-4.249935E1,8.746005E2,7.9572266E1,-5.074951E1,-1.9493268E2,-2.495658E2,8.3688354E1,-2.3884448E2,-3.7337466E2,-2.6831345E2,-4.174951E1,1.2434673E3,-7.556602E1,5.504883E-1,3.615049E1,-4.6601564E-1,-4.485547E2,-1.01782394E2,-2.1559077E2,-8.234951E1,-3.858372E2,-2.0995119E0,-3.0668576E2,-1.07415855E2,1.628505E2,2.53734E2,-1.7969003E2,-4.049935E1,8.930049E1,-7.751345E1,-2.7731616E2,7.750073E1,-2.6676166E2,-4.3522516E2,-3.1110846E2,1.4136078E2,-5.3259216E1,-1.2581586E2,-3.7665924E2,-9.839927E1,3.521005E2,-1.9334918E2,-5.4499218E1,-3.8339407E2,-2.3337906E2,-1.0284911E2,1.3597574E2,-1.5384904E2,-2.2935417E1,-1.1653268E2,-3.785658E2,-2.2081346E2,-4.868488E1,-1.0560744E2,6.0250854E1,-3.5364908E2,-4.8174267E1,-1.1056811E2,-3.1210623E2,-3.1161535E1,-1.489667E2,-1.9127642E1,2.2355074E2,1.1735049E2,7.534005E2,-3.8584785E1,-2.1202576E2,-5.4259216E1,2.0954077E2,-5.362453E1,2.4654077E2,3.3836655E1,3.4014093E2,-4.5364917E2,4.360049E1,-1.8484912E2,6.1440884E1,-9.951172E-2,-6.399951E1,-1.04874146E2,1.7881342E2,-9.645693E1,2.117177E1,8.773856E1,2.9229697E2,-2.3598802E2,-5.8136196E1,-1.8334952E2,4.1323398E2,-1.3243268E2,-2.6899511E1,1.8463487E2,-1.25288025E2,5.551408E2,2.501375E2,3.7484918E2,1.8663841E2,-1.1593252E2,3.5666733E2,3.0577783E2,5.642087E2,-1.0183269E2,2.0510081E2,9.950049E1,-1.6292427E2,1.2337593E2,3.2106097E2,1.6341748E2,-7.4766014E1,5.66558E2,2.3200085E2,-7.473922E1,2.1940088E2,1.7035004E3,4.3105075E2,1.8192088E2,4.504876E2,1.0380049E2,-6.6599266E1,7.829957E2,2.8392575E2,-4.753268E1,1.889005E2,5.743343E2,3.9003595E2,1.8355049E2,-3.4426602E2,5.235509E2,1.20484146E2,2.499005E2,2.2750488E1,1.4700488E1,-3.1599512E1,6.808197E2,2.800608E2,1.4037509E3,7.411652E2,3.740175E2,7.0827997E2,3.9823398E2,-1.8864952E2,3.2330078E2,6.3238275E2,1.1313134E3,7.703359E2,6.1834326E2,8.5180096E2,1.2735073E2,5.7299475E2,5.8822577E2,1.5043399E2,1.6890258E3,4.518505E2,3.2180066E2,5.6533985E1,1.819734E3,8.8817236E2,2.720184E3,4.556005E2,9.1858673E2,6.774943E2,2.1700073E2,5.1482587E2,7.648913E2,1.0601324E3,1.4077616E3,1.1205691E3,6.5100995E2,1.09691E3,9.38258E2,2.389111E3,1.2226343E3,1.371005E2],"categories":[],"categories_nodes":[],"categories_segments":[],"categories_sizes":[],"default_left":[0,0,0,0,0,0,0,0,0,0,0,0,0,0,0,0,0,0,0,0,0,0,0,0,0,0,0,0,1,0,0,0,0,0,0,0,0,0,0,0,0,0,1,0,0,0,0,0,0,0,0,0,0,0,0,0,0,0,0,0,0,0,0,0,0,0,0,0,0,0,0,1,0,0,0,0,0,0,0,0,0,1,0,0,0,0,0,0,0,0,0,0,0,0,0,0,0,0,0,0,0,0,0,0,0,0,0,0,0,0,0,0,0,0,0,0,0,0,0,0,0,0,0,0,0,0,0,0,0,0,0,0,0,0,0,0,0,0,0,0,0,0,0,0,0,0,0,1,0,0,0,0,0,0,0,0,0,0,0,0,0,0,0,0,0,0,0,0,0,0,0,0,0,0,0,0,0,0,0,0,0,0,0,0,0,0,0,0,0,0,0,0,0,1,0,0,0,0,0,0,0,0,0,0,0,0,0,0,0,0,0,0,0,0,0,0,0,0,0,0,0,0,0,0,0,0,0,0,0,0,0,0,0,0,0,0,0,0,0,0,0,0,0,0,0,0,0,0,0,0,0,0,0,0,0,0,0,0,0,0,0,0,0,0,0,0,0,0,0,0,0,0,0,0,0,0,0,0,0,0,0,0,0,0,0,0,0,0,0,0,0,0,0,0,0,0,0,0,0,0,0,0,0,0,0,0,0,0,0,0,0,0,0,0,0,0,0,0,0,0,0,0,0,1,0,0,0,0,0,0,0,0,0,0,0,0,0,0,0,0,0,0,0,0,0,0,0,0,0,0,0,0,0,0,0,0,0,0,0,0,0,0,0,0,0,0,0,0,0,0,0,0,0,0,0,0,0,0,0,0,0,0,0,0,0,0,0,0,0,0,0,0,0,0,0,0,0,0,0,0,0,0,0,0,0,0,0,0,0,0,0,0,0,0,0,0,0,0,0,0,0,0,0,0,0,0,0,0,0,0,0,0,0,0,0,0,0,0,0,0,0,0,0,0,0,0,0,0,0,0,0,0,0,0,0,0,0,0,0,0,0,0,0,0,0,0,0,0,0,0,0,0,0,0,0,0,0,0,0,0,0,0,0,0,0,0,0,0,0,0,0,0,0,0,0,0,0,0,0,0,0,0,0,0,0,0,0,0,0,0,0,0,0,0,0,0,0,0,0,0,0,0,0,0,0,0,0,0,0,0,0,0,0,0,0,0,0,0,0,0,0,0,0,0,0,0,0,0,0,0,0,0,0,0,0,0,0,0,0,0,0,0,0,0,0,0,0,0,0,0,0,0,0,0,0,0,0,0,0,0,0,0,0,0,0,0,0,0,0,0,0,0,0,0,0,0,0,0,0,0,0,0,0,0,0,0,0,0,0,0,0,0,0,0,0,0,0,0,0,0,0,0,0,0,0,0,0,0,0,0,0,0,0,0,0,0,0,0,0,0,0,0,0,0,0,0,0,0,0,0,0,0,0,0,0,0,0,0,0,0,0,0,0,0,0,0,0,0,0,0,0,0,0,0,0,0,0,0,0,0,0,0,0,0,0,0,0,0,0,0,0,0,0,0,0,0,0],"id":0,"left_children":[1,3,5,7,9,11,13,15,17,19,21,23,25,27,29,31,-1,33,35,37,39,41,43,45,47,49,51,53,55,-1,-1,-1,-1,57,59,61,-1,63,65,-1,67,69,71,73,75,77,79,81,83,85,87,89,91,93,95,97,99,101,103,105,107,109,111,113,115,117,119,121,123,125,127,129,131,133,135,137,-1,139,141,143,145,147,149,151,153,155,157,159,161,163,165,167,169,171,173,175,177,-1,179,-1,181,183,185,187,189,191,193,195,-1,197,199,201,203,205,207,209,211,213,215,217,219,221,223,225,227,229,231,233,235,237,239,-1,241,243,-1,-1,245,247,-1,249,251,253,255,-1,257,259,261,263,265,267,269,271,273,-1,275,277,279,-1,281,283,285,287,289,291,293,295,-1,297,299,301,303,305,307,-1,-1,309,311,-1,-1,-1,-1,313,315,317,-1,319,-1,-1,-1,-1,321,-1,-1,323,325,-1,-1,327,329,331,333,-1,-1,335,337,339,341,343,345,347,349,351,353,-1,-1,355,357,359,361,363,365,-1,-1,367,369,371,373,375,377,-1,379,-1,381,383,385,387,389,391,393,395,-1,397,399,401,-1,403,405,407,-1,409,411,413,415,417,419,-1,421,-1,-1,-1,-1,-1,423,425,427,-1,-1,-1,-1,429,431,433,435,-1,437,439,441,443,445,-1,447,-1,-1,449,451,-1,453,455,-1,457,459,461,-1,463,465,467,469,-1,471,473,475,477,479,481,483,485,487,-1,489,491,-1,-1,-1,-1,-1,-1,-1,-1,493,-1,495,-1,-1,497,499,501,503,-1,-1,505,507,-1,509,511,513,515,517,519,521,-1,-1,523,525,-1,527,529,531,-1,533,-1,535,537,-1,539,541,-1,-1,543,-1,545,547,-1,549,551,553,555,557,559,-1,561,563,-1,-1,565,-1,567,569,571,573,575,-1,-1,-1,577,579,581,583,585,587,589,591,593,595,597,599,-1,-1,-1,601,603,605,-1,-1,607,-1,609,611,-1,613,615,617,619,621,623,625,627,629,-1,-1,631,-1,-1,-1,-1,-1,633,635,637,639,-1,-1,-1,-1,641,-1,-1,-1,-1,643,645,647,649,651,653,-1,655,-1,-1,-1,-1,657,-1,-1,-1,-1,659,661,663,665,-1,-1,-1,-1,667,-1,-1,-1,669,671,-1,673,675,-1,677,-1,-1,-1,-1,679,681,-1,683,685,-1,687,689,-1,-1,691,693,695,-1,-1,-1,-1,-1,-1,-1,-1,-1,-1,-1,-1,-1,-1,-1,-1,-1,-1,-1,-1,-1,-1,-1,-1,-1,-1,-1,-1,-1,-1,-1,-1,-1,-1,-1,-1,-1,-1,-1,-1,-1,-1,-1,-1,-1,-1,-1,-1,-1,-1,-1,-1,-1,-1,-1,-1,-1,-1,-1,-1,-1,-1,-1,-1,-1,-1,-1,-1,-1,-1,-1,-1,-1,-1,-1,-1,-1,-1,-1,-1,-1,-1,-1,-1,-1,-1,-1,-1,-1,-1,-1,-1,-1,-1,-1,-1,-1,-1,-1,-1,-1,-1,-1,-1,-1,-1,-1,-1,-1,-1,-1,-1,-1,-1,-1,-1,-1,-1,-1,-1,-1,-1,-1,-1,-1,-1,-1,-1,-1,-1,-1,-1,-1,-1,-1,-1,-1,-1,-1,-1,-1,-1,-1,-1,-1,-1,-1,-1,-1,-1,-1,-1,-1,-1,-1,-1,-1,-1,-1,-1,-1,-1,-1,-1,-1,-1,-1,-1,-1,-1,-1,-1,-1,-1,-1,-1,-1,-1,-1,-1,-1,-1,-1,-1,-1,-1,-1,-1,-1,-1,-1,-1,-1,-1,-1,-1,-1,-1,-1,-1,-1,-1,-1,-1,-1,-1],"loss_changes":[2.2450415E11,3.3600029E10,3.3585398E10,8.1226465E9,2.766224E9,5.55794E9,4.937425E9,7.8073856E8,1.3247939E9,3.487017E8,7.5150246E8,8.8833126E8,7.887749E8,8.9051136E8,1.4502707E8,2.8019098E8,0E0,1.4248755E8,7.945626E7,6.3837184E7,2.4041792E8,7.691715E7,3.8090464E8,8.994842E7,1.2612301E8,1.2301414E8,3.543204E8,1.7285325E8,2.4284365E8,0E0,0E0,0E0,0E0,9.439027E7,6.1282304E7,4.0986624E7,0E0,9.084147E7,3.9572736E7,0E0,1.8070451E8,5.4683456E7,5.082665E7,2.0351709E8,4.925854E8,7.471155E7,5.377293E7,1.4614426E8,1.3998234E8,7.257152E6,6.0914176E7,9.698099E7,2.602496E8,1.2253184E8,6.428749E7,5.868749E7,1.0916209E9,5.168947E7,1.338929E8,2.9145088E7,4.883264E7,5.064525E7,7.2576E7,7.45897E7,6.251657E7,8.225075E7,7.162522E7,3.0530506E8,5.6745216E7,1.9900286E8,5.366813E7,1.7646824E8,4.740792E7,2.9618413E8,1.5042867E8,3.3427264E7,0E0,6.270464E7,1.4848886E7,5.51496E5,5.3138784E7,5.818163E7,4.457989E8,1.3136563E8,8.424346E7,1.6340672E7,1.1849904E7,4.021907E7,8.050688E7,5.041101E7,2.502912E7,1.891127E8,4.5028557E8,1.010647E8,3.447179E7,3.6819776E7,4.498048E6,0E0,2.926592E6,0E0,1.7287168E8,5.178368E6,2.614871E8,9.636312E7,1.2336192E7,7.1221E7,1.6177152E7,1.4043001E7,0E0,2.6699674E8,2.3756288E7,6.45238E7,4.7570944E7,8.825638E7,3.8483584E7,1.7789296E8,2.7410944E7,1.3988998E8,5.084237E7,4.902622E7,1.7755648E7,1.5289683E8,8.391053E7,4.86236E7,4.794125E7,1.4721703E7,1.3566846E8,3.1291168E7,4.180926E7,8.102636E7,1.6000008E8,0E0,4.132419E7,2.703822E7,0E0,0E0,1.3247936E8,2.213235E7,0E0,4.4017024E7,1.4200858E8,1.4911897E7,1.4331487E7,0E0,5.339404E6,1.5400256E7,1.8419936E7,5.666099E7,1.0545121E7,5.1262336E7,1.8963872E7,7.321885E7,5.001472E7,0E0,8.056422E7,2.8167744E7,8.144384E6,0E0,4.324E5,3.2647936E7,2.3786688E7,6.5519104E7,7.76199E7,7.730544E6,2.226688E6,2.772224E7,0E0,8.535987E7,7.387891E7,6.732211E8,1.6420864E8,9.543475E7,3.3028966E8,0E0,0E0,4.5976E7,1.838482E6,0E0,0E0,0E0,0E0,5.877619E7,3.4471936E7,1.0190797E8,0E0,1.1169036E8,0E0,0E0,0E0,0E0,2.455128E7,0E0,0E0,2.2851584E7,5.4016E6,0E0,0E0,6.239808E6,1.8083182E8,8.539648E6,3.2135296E7,0E0,0E0,4.7842816E7,4.8465664E7,9.570424E6,8.017609E7,1.4514112E7,4.5421504E7,5.270824E6,1.2139794E8,1.3227235E6,4.216939E7,0E0,0E0,2.1718786E7,1.3124736E7,2.3784064E7,1.2209059E8,2.4468736E7,1.9888256E7,0E0,0E0,9.954528E7,3.2832432E7,6.900464E6,1.9637E7,6.2994816E7,4.9478256E7,0E0,9.149722E6,0E0,2.121204E6,7.46751E7,2.9468048E7,8.2909416E7,2.817243E7,6.969779E7,4.731175E7,9.9042E5,0E0,1.2397716E7,4.9834104E7,6.329575E4,0E0,1.8449414E8,3.5804436E7,2.2864035E6,0E0,5.2134784E7,5.1224704E7,8.606541E7,5.2617664E7,6.809537E6,6.828536E6,0E0,9.5503E5,0E0,0E0,0E0,0E0,0E0,2.2736915E6,4.910821E7,1.4726349E8,0E0,0E0,0E0,0E0,2.110848E6,1.237203E7,1.4756635E7,8.974592E6,0E0,5.794176E7,6.4674816E7,8.396706E7,1.573312E6,4.748999E6,0E0,6.548928E6,0E0,0E0,2.3298368E7,3.710005E5,0E0,1.0903528E7,3.468339E7,0E0,1.6789344E7,4.1749348E6,1.3766576E7,0E0,2.91584E7,4.937075E7,5.962496E7,9.779968E6,0E0,7.078208E7,1.8114848E7,8.539136E6,2.69824E7,2.5508045E8,7.924122E7,2.0575027E8,6.078157E7,4.649843E7,0E0,2.3034163E8,4.141248E6,0E0,0E0,0E0,0E0,0E0,0E0,0E0,0E0,5.3187584E7,0E0,4.241656E6,0E0,0E0,1.0335232E7,3.0172224E7,3.55648E7,1.1108352E7,0E0,0E0,1.4532619E8,1.2550461E8,0E0,2.150912E6,2.6486595E6,1.5372544E7,1.252864E7,3.051046E7,2.3873523E8,2.6498816E7,0E0,0E0,5.086446E6,9.093505E7,0E0,1.39636E5,4.612264E7,3.725792E7,0E0,2.640076E6,0E0,2.2005754E8,8.183728E4,0E0,3.282128E7,9.2544E6,0E0,0E0,3.48416E6,0E0,8.577072E6,1.0775103E7,0E0,4.3468796E7,2.005456E6,1.9393216E7,2.9083734E7,1.638592E7,9.253628E6,0E0,1.0833328E7,2.673842E7,0E0,0E0,3.39225E6,0E0,2.322384E7,1.6912654E7,3.781416E7,4.757352E6,8.414478E6,0E0,0E0,0E0,1.3042026E7,2.1541536E7,4.782648E7,3.3622476E7,1.9747548E7,1.5182376E7,2.505762E7,1.6727822E7,4.095406E7,8.9613976E7,2.4692848E7,2.99286E7,0E0,0E0,0E0,2.7136488E5,4.2181252E7,2.5976792E7,0E0,0E0,9.522342E7,0E0,2.1731032E7,3.8898756E7,0E0,3.19027E5,7.291214E7,3.462957E7,3.2835584E7,4.4475424E7,3.966733E7,1.7652992E7,8.499121E6,4.723184E7,0E0,0E0,1.0552042E7,0E0,0E0,0E0,0E0,0E0,2.5646336E7,2.8007186E7,1.2811962E8,4.946611E7,0E0,0E0,0E0,0E0,3.8599538E6,0E0,0E0,0E0,0E0,3.472973E7,6.4314755E6,2.7321856E7,3.1215068E7,4.244824E7,2.681761E6,0E0,2.0484977E5,0E0,0E0,0E0,0E0,2.520096E7,0E0,0E0,0E0,0E0,5.301453E7,1.5458816E7,3.7991132E7,2.217536E6,0E0,0E0,0E0,0E0,1.8138112E7,0E0,0E0,0E0,1.576064E7,4.3738496E7,0E0,1.4133512E7,8.505088E6,0E0,6.26085E6,0E0,0E0,0E0,0E0,9.66857E7,2.3897882E8,0E0,3.8882304E7,4.8152E6,0E0,1.0280038E8,3.540992E7,0E0,0E0,2.933696E7,5.256709E8,8.145894E7,0E0,0E0,0E0,0E0,0E0,0E0,0E0,0E0,0E0,0E0,0E0,0E0,0E0,0E0,0E0,0E0,0E0,0E0,0E0,0E0,0E0,0E0,0E0,0E0,0E0,0E0,0E0,0E0,0E0,0E0,0E0,0E0,0E0,0E0,0E0,0E0,0E0,0E0,0E0,0E0,0E0,0E0,0E0,0E0,0E0,0E0,0E0,0E0,0E0,0E0,0E0,0E0,0E0,0E0,0E0,0E0,0E0,0E0,0E0,0E0,0E0,0E0,0E0,0E0,0E0,0E0,0E0,0E0,0E0,0E0,0E0,0E0,0E0,0E0,0E0,0E0,0E0,0E0,0E0,0E0,0E0,0E0,0E0,0E0,0E0,0E0,0E0,0E0,0E0,0E0,0E0,0E0,0E0,0E0,0E0,0E0,0E0,0E0,0E0,0E0,0E0,0E0,0E0,0E0,0E0,0E0,0E0,0E0,0E0,0E0,0E0,0E0,0E0,0E0,0E0,0E0,0E0,0E0,0E0,0E0,0E0,0E0,0E0,0E0,0E0,0E0,0E0,0E0,0E0,0E0,0E0,0E0,0E0,0E0,0E0,0E0,0E0,0E0,0E0,0E0,0E0,0E0,0E0,0E0,0E0,0E0,0E0,0E0,0E0,0E0,0E0,0E0,0E0,0E0,0E0,0E0,0E0,0E0,0E0,0E0,0E0,0E0,0E0,0E0,0E0,0E0,0E0,0E0,0E0,0E0,0E0,0E0,0E0,0E0,0E0,0E0,0E0,0E0,0E0,0E0,0E0,0E0,0E0,0E0,0E0,0E0,0E0,0E0,0E0,0E0,0E0,0E0,0E0,0E0,0E0,0E0,0E0,0E0,0E0,0E0,0E0,0E0,0E0,0E0,0E0,0E0],"parents":[2147483647,0,0,1,1,2,2,3,3,4,4,5,5,6,6,7,7,8,8,9,9,10,10,11,11,12,12,13,13,14,14,15,15,17,17,18,18,19,19,20,20,21,21,22,22,23,23,24,24,25,25,26,26,27,27,28,28,33,33,34,34,35,35,37,37,38,38,40,40,41,41,42,42,43,43,44,44,45,45,46,46,47,47,48,48,49,49,50,50,51,51,52,52,53,53,54,54,55,55,56,56,57,57,58,58,59,59,60,60,61,61,62,62,63,63,64,64,65,65,66,66,67,67,68,68,69,69,70,70,71,71,72,72,73,73,74,74,75,75,77,77,78,78,79,79,80,80,81,81,82,82,83,83,84,84,85,85,86,86,87,87,88,88,89,89,90,90,91,91,92,92,93,93,94,94,95,95,96,96,98,98,100,100,101,101,102,102,103,103,104,104,105,105,106,106,107,107,109,109,110,110,111,111,112,112,113,113,114,114,115,115,116,116,117,117,118,118,119,119,120,120,121,121,122,122,123,123,124,124,125,125,126,126,127,127,128,128,129,129,130,130,132,132,133,133,136,136,137,137,139,139,140,140,141,141,142,142,144,144,145,145,146,146,147,147,148,148,149,149,150,150,151,151,152,152,154,154,155,155,156,156,158,158,159,159,160,160,161,161,162,162,163,163,164,164,165,165,167,167,168,168,169,169,170,170,171,171,172,172,175,175,176,176,181,181,182,182,183,183,185,185,190,190,193,193,194,194,197,197,198,198,199,199,200,200,203,203,204,204,205,205,206,206,207,207,208,208,209,209,210,210,211,211,212,212,215,215,216,216,217,217,218,218,219,219,220,220,223,223,224,224,225,225,226,226,227,227,228,228,230,230,232,232,233,233,234,234,235,235,236,236,237,237,238,238,239,239,241,241,242,242,243,243,245,245,246,246,247,247,249,249,250,250,251,251,252,252,253,253,254,254,256,256,262,262,263,263,264,264,269,269,270,270,271,271,272,272,274,274,275,275,276,276,277,277,278,278,280,280,283,283,284,284,286,286,287,287,289,289,290,290,291,291,293,293,294,294,295,295,296,296,298,298,299,299,300,300,301,301,302,302,303,303,304,304,305,305,306,306,308,308,309,309,318,318,320,320,323,323,324,324,325,325,326,326,329,329,330,330,332,332,333,333,334,334,335,335,336,336,337,337,338,338,341,341,342,342,344,344,345,345,346,346,348,348,350,350,351,351,353,353,354,354,357,357,359,359,360,360,362,362,363,363,364,364,365,365,366,366,367,367,369,369,370,370,373,373,375,375,376,376,377,377,378,378,379,379,383,383,384,384,385,385,386,386,387,387,388,388,389,389,390,390,391,391,392,392,393,393,394,394,398,398,399,399,400,400,403,403,405,405,406,406,408,408,409,409,410,410,411,411,412,412,413,413,414,414,415,415,416,416,419,419,425,425,426,426,427,427,428,428,433,433,438,438,439,439,440,440,441,441,442,442,443,443,445,445,450,450,455,455,456,456,457,457,458,458,463,463,467,467,468,468,470,470,471,471,473,473,478,478,479,479,481,481,482,482,484,484,485,485,488,488,489,489,490,490],"right_children":[2,4,6,8,10,12,14,16,18,20,22,24,26,28,30,32,-1,34,36,38,40,42,44,46,48,50,52,54,56,-1,-1,-1,-1,58,60,62,-1,64,66,-1,68,70,72,74,76,78,80,82,84,86,88,90,92,94,96,98,100,102,104,106,108,110,112,114,116,118,120,122,124,126,128,130,132,134,136,138,-1,140,142,144,146,148,150,152,154,156,158,160,162,164,166,168,170,172,174,176,178,-1,180,-1,182,184,186,188,190,192,194,196,-1,198,200,202,204,206,208,210,212,214,216,218,220,222,224,226,228,230,232,234,236,238,240,-1,242,244,-1,-1,246,248,-1,250,252,254,256,-1,258,260,262,264,266,268,270,272,274,-1,276,278,280,-1,282,284,286,288,290,292,294,296,-1,298,300,302,304,306,308,-1,-1,310,312,-1,-1,-1,-1,314,316,318,-1,320,-1,-1,-1,-1,322,-1,-1,324,326,-1,-1,328,330,332,334,-1,-1,336,338,340,342,344,346,348,350,352,354,-1,-1,356,358,360,362,364,366,-1,-1,368,370,372,374,376,378,-1,380,-1,382,384,386,388,390,392,394,396,-1,398,400,402,-1,404,406,408,-1,410,412,414,416,418,420,-1,422,-1,-1,-1,-1,-1,424,426,428,-1,-1,-1,-1,430,432,434,436,-1,438,440,442,444,446,-1,448,-1,-1,450,452,-1,454,456,-1,458,460,462,-1,464,466,468,470,-1,472,474,476,478,480,482,484,486,488,-1,490,492,-1,-1,-1,-1,-1,-1,-1,-1,494,-1,496,-1,-1,498,500,502,504,-1,-1,506,508,-1,510,512,514,516,518,520,522,-1,-1,524,526,-1,528,530,532,-1,534,-1,536,538,-1,540,542,-1,-1,544,-1,546,548,-1,550,552,554,556,558,560,-1,562,564,-1,-1,566,-1,568,570,572,574,576,-1,-1,-1,578,580,582,584,586,588,590,592,594,596,598,600,-1,-1,-1,602,604,606,-1,-1,608,-1,610,612,-1,614,616,618,620,622,624,626,628,630,-1,-1,632,-1,-1,-1,-1,-1,634,636,638,640,-1,-1,-1,-1,642,-1,-1,-1,-1,644,646,648,650,652,654,-1,656,-1,-1,-1,-1,658,-1,-1,-1,-1,660,662,664,666,-1,-1,-1,-1,668,-1,-1,-1,670,672,-1,674,676,-1,678,-1,-1,-1,-1,680,682,-1,684,686,-1,688,690,-1,-1,692,694,696,-1,-1,-1,-1,-1,-1,-1,-1,-1,-1,-1,-1,-1,-1,-1,-1,-1,-1,-1,-1,-1,-1,-1,-1,-1,-1,-1,-1,-1,-1,-1,-1,-1,-1,-1,-1,-1,-1,-1,-1,-1,-1,-1,-1,-1,-1,-1,-1,-1,-1,-1,-1,-1,-1,-1,-1,-1,-1,-1,-1,-1,-1,-1,-1,-1,-1,-1,-1,-1,-1,-1,-1,-1,-1,-1,-1,-1,-1,-1,-1,-1,-1,-1,-1,-1,-1,-1,-1,-1,-1,-1,-1,-1,-1,-1,-1,-1,-1,-1,-1,-1,-1,-1,-1,-1,-1,-1,-1,-1,-1,-1,-1,-1,-1,-1,-1,-1,-1,-1,-1,-1,-1,-1,-1,-1,-1,-1,-1,-1,-1,-1,-1,-1,-1,-1,-1,-1,-1,-1,-1,-1,-1,-1,-1,-1,-1,-1,-1,-1,-1,-1,-1,-1,-1,-1,-1,-1,-1,-1,-1,-1,-1,-1,-1,-1,-1,-1,-1,-1,-1,-1,-1,-1,-1,-1,-1,-1,-1,-1,-1,-1,-1,-1,-1,-1,-1,-1,-1,-1,-1,-1,-1,-1,-1,-1,-1,-1,-1,-1,-1,-1,-1,-1,-1,-1,-1],"split_conditions":[1.9876E4,1.4612E4,2.8159E4,1.065E4,1.6762E4,2.4106E4,3.6384E4,1E0,1.3081E4,1.6238E4,1.8327E4,2.188E4,2.5134E4,3.0185E4,3.362E4,9.207E3,-1.2359128E3,1.1703E4,1E0,1.9074E4,8.774E3,1.7549E4,2.6376E4,4.1495E4,2.3138E4,1.1686E4,1.8734178E4,2.5067E4,2.23285E4,2.260753E3,4.461005E2,-1.000777E3,-8.382839E2,2.01005E4,1E0,7E0,-7.134777E2,1.5853E4,1.5138E4,9.690505E2,1.6315E4,8.57E3,1.9146035E4,1.1286E4,2.8E1,1.1E1,1.5762E4,3.3271E4,1.3003E4,1.8142965E4,1.6469715E4,1.7533E4,1.6406E4,3.1E1,1.917E4,3.3647E4,1.6473E4,2.2326E4,1.2907E4,9.037E3,9.578E3,1.5725E4,1.3450393E4,1.0068E4,8E0,8.254E3,1.5288E4,1E0,8.968E3,2.8468E4,2.3833E4,1.8992822E4,7.626E3,6E0,1.2447893E4,1.9002E4,1.5746757E3,2.1051E4,3.6114E4,3E0,1.847E4,3.4804E4,2.2254E4,1.3922393E4,7.091E3,1.9678E4,1.8414822E4,2.024E3,2.8734E4,1.0704E4,1.8679428E4,1.2052E4,1.7409E4,2.4E1,1.1686E4,2.7E1,2.6199178E4,1.3531954E3,2.9212E4,3.7637341E3,3.2E4,3E0,1.4806179E4,4E0,1.9585E4,1E1,5E0,1E0,-8.567254E2,1.3445E4,1.6145E4,2E1,1.4019E4,1.1E1,1.4629E4,7E0,7.981E3,1.3E1,1.1327E4,7E0,1.6473E4,1.6E1,1.5093E4,2.547E4,1.6961E4,2E0,1.2E1,1.5333E4,2.64E4,1.8134E4,5E0,4.312005E2,1.4915E4,1.8648E4,1.6797004E3,9.599505E2,2.2962178E4,3.0943E4,3.8902942E2,2E1,1.6593E4,1.5831E4,1.8298E4,2.2330049E2,1.2E1,2.0663E4,9E0,1.1504E4,2.2036E4,1.6819E4,4E0,2.124E4,1.2082E4,-2.3304951E2,2.7341E4,2.3E1,2E0,5.1633984E1,2.6E1,2.2422E4,1.3450393E4,2.7327215E4,2.4902E4,1.039E4,1.4467E4,1.536E4,3.517675E2,1.5471E4,1.2156E4,1.5795E4,2.9368E4,2E1,7.66E3,9.100489E0,6.615208E2,2.9866E4,2.8823E4,1.1824373E3,6.115608E2,1.630376E3,4.6890048E2,2.9453E4,1.1E1,8.421E3,-7.2507184E2,9E0,-6.6959906E2,-4.2659952E2,4.7726733E2,-5.769366E2,8E0,-4.6476602E2,3.208005E2,2.7364E4,1.0135E4,5.445049E1,-3.596495E2,1.5345E4,1.8703072E4,1.2264036E4,3E0,-2.5199922E2,4.222005E2,3.1E1,9.75E3,1.68845E4,1.9723E4,1.5308E4,1.2615E4,3E0,1.0586E4,1.6145E4,4E0,7.518505E2,-3.3276602E2,1.3E1,2.9853E4,2.9683E4,2.3251E4,1.4384643E4,3E0,1.5715005E3,2.8150488E1,8E0,9E0,1.1E1,9E0,2.4775E4,3.1536E4,1.3363399E2,1.7409E4,1.2930005E3,2.3E1,1.1686E4,1.5E1,1.1E1,2.3245428E4,2.0048E4,1E0,2E0,1.2986005E3,1.1E1,1.5795E4,1.1E1,3.408673E2,2.2573035E4,2.4343E4,1.8398E4,3.1740048E2,1.6459E4,1.1E1,1E1,1.4715643E4,2E0,3.1195E4,8.063399E1,1.4E1,-6.594952E1,1.5583398E2,3.8883398E2,1.1465673E3,5.0078415E2,7E0,1.3E1,1.1663E4,-1.0574951E2,1.7070085E2,2.7415048E2,1.4187294E3,2.8E1,2.6199178E4,5E0,9E0,4.920049E1,1.2394E4,8.141E3,1.4179E4,1.333E4,2.6E1,1.314005E2,3E0,3.6962585E2,1.0125049E2,1.3388E4,4E0,-1.3854951E2,4E0,1.2805E4,-4.0649513E1,2E0,1E0,1.2816E4,1.8106732E2,2.6852E4,7E0,1.6001607E4,3E1,5.2578076E2,2.5621E4,2.9238E4,2.9496E4,1.4038E4,2.7203E4,3.1864E4,1.418E4,4.1255E4,7.983E3,3.2512573E2,2.7E1,1.9898678E4,3.640049E1,2.7396732E2,4.9050488E1,1.2291866E3,4.7280075E2,2.0332572E3,1.4987094E3,2.0855049E2,2.3242E4,-3.5629935E2,3.1E1,-3.7636603E2,1.1220049E2,7.807E3,1.4E1,1.8298E4,1.3398964E4,-1.01549515E2,-4.9599908E2,1.3436E4,1.9905E4,-8.814951E1,2E0,4E0,1.792E4,1.4424429E4,1.6362E4,1.8631E4,7E0,-4.352792E2,-1.03666016E2,6E0,1.4749E4,-5.038068E2,2E0,1.2E1,1.8792143E4,-8.4951174E-1,1.1E1,-2.948995E2,2.024E3,1.2E1,1.5555049E2,3E0,2.024E3,3.040005E2,-1.6854951E2,8.394E3,-9.599512E0,1.9708E4,5E0,7.459005E2,7E0,1.5317E4,2.0288E4,1.0939E4,1.7095E4,2.3E1,8.449005E2,1.4305E4,1.3E1,3.4292575E2,2.3450489E1,1.3963571E4,2.0680049E2,1.647E4,2.7E1,1.8028E4,5E0,5E0,6.1033985E1,1.4305049E2,-1.9199512E1,1.4750536E4,3.4268E4,2.8031E4,1.9674678E4,2.6E1,1E0,2.024E3,1.7016E4,2.9E1,1.7034E4,1.7702E4,6E0,1.7847574E2,2.905049E1,-3.547492E2,1.3E1,2.3841E4,2.3887607E4,-1.1709951E2,-2.9049513E1,2.5596E4,1.0710005E3,1.8996E4,2.2685E4,3.180049E1,1.8738E4,1.5317E4,2E0,1.8996E4,2.1028928E4,1.3147E4,9.803E3,1.7217E4,5E0,-2.1084952E2,6.360049E1,2.9368E4,3.013673E2,-6.379951E1,-2.904995E2,1.77234E2,1.5504884E0,1.6517E4,1.8E1,7E0,1.2223E4,3.8831335E2,9.115049E1,-8.636602E1,2.3775049E2,1E1,2.788673E2,6.389634E2,2.1553398E2,1.4173007E3,1E0,1.4E1,1E0,4E0,2.0838E4,1E1,4.6907364E2,2E0,1.8243399E2,1.489005E2,6.427426E2,5.665049E1,2.0048E4,1.334005E2,2.4000488E1,3.5092078E2,-5.449512E0,4E0,1.3275E4,7E0,1.238E4,3.965049E1,-1.8019951E2,9.980049E1,6.344608E2,2.5265E4,1.3300049E2,4.6802573E2,1.1879938E3,1.3765179E4,1.6134286E4,8.454135E2,2.024E3,2.9453E4,2.623505E2,7E0,-1.4539952E2,6.15485E2,2.1686731E2,5.811508E2,2.122E4,2.5596E4,3.394505E2,1.8E1,1.3919E4,2.2459004E3,1.3275E4,2.0045E4,1.9680049E2,2.4326732E2,2.2E1,4E0,1E1,9.027759E2,4.8300082E2,-6.603773E2,-1.6222427E2,5.313674E2,1.1445049E2,-3.7379077E2,-5.635262E2,1.8120049E2,-3.7994952E2,-3.3871338E2,-5.8169476E2,-3.3916586E2,-6.3231036E2,-1.4557426E2,6.948008E2,-4.0557187E2,2.1022078E2,-2.3992427E2,-5.0534738E2,1.805049E1,-1.4435922E2,-4.3764038E2,-3.2961334E2,-6.354465E2,-4.903746E2,-3.1682416E2,8.503399E1,-3.517158E2,8.371505E2,-3.8973846E2,-5.0577048E2,-2.6419928E2,-4.249935E1,8.746005E2,7.9572266E1,-5.074951E1,-1.9493268E2,-2.495658E2,8.3688354E1,-2.3884448E2,-3.7337466E2,-2.6831345E2,-4.174951E1,1.2434673E3,-7.556602E1,5.504883E-1,3.615049E1,-4.6601564E-1,-4.485547E2,-1.01782394E2,-2.1559077E2,-8.234951E1,-3.858372E2,-2.0995119E0,-3.0668576E2,-1.07415855E2,1.628505E2,2.53734E2,-1.7969003E2,-4.049935E1,8.930049E1,-7.751345E1,-2.7731616E2,7.750073E1,-2.6676166E2,-4.3522516E2,-3.1110846E2,1.4136078E2,-5.3259216E1,-1.2581586E2,-3.7665924E2,-9.839927E1,3.521005E2,-1.9334918E2,-5.4499218E1,-3.8339407E2,-2.3337906E2,-1.0284911E2,1.3597574E2,-1.5384904E2,-2.2935417E1,-1.1653268E2,-3.785658E2,-2.2081346E2,-4.868488E1,-1.0560744E2,6.0250854E1,-3.5364908E2,-4.8174267E1,-1.1056811E2,-3.1210623E2,-3.1161535E1,-1.489667E2,-1.9127642E1,2.2355074E2,1.1735049E2,7.534005E2,-3.8584785E1,-2.1202576E2,-5.4259216E1,2.0954077E2,-5.362453E1,2.4654077E2,3.3836655E1,3.4014093E2,-4.5364917E2,4.360049E1,-1.8484912E2,6.1440884E1,-9.951172E-2,-6.399951E1,-1.04874146E2,1.7881342E2,-9.645693E1,2.117177E1,8.773856E1,2.9229697E2,-2.3598802E2,-5.8136196E1,-1.8334952E2,4.1323398E2,-1.3243268E2,-2.6899511E1,1.8463487E2,-1.25288025E2,5.551408E2,2.501375E2,3.7484918E2,1.8663841E2,-1.1593252E2,3.5666733E2,3.0577783E2,5.642087E2,-1.0183269E2,2.0510081E2,9.950049E1,-1.6292427E2,1.2337593E2,3.2106097E2,1.6341748E2,-7.4766014E1,5.66558E2,2.3200085E2,-7.473922E1,2.1940088E2,1.7035004E3,4.3105075E2,1.8192088E2,4.504876E2,1.0380049E2,-6.6599266E1,7.829957E2,2.8392575E2,-4.753268E1,1.889005E2,5.743343E2,3.9003595E2,1.8355049E2,-3.4426602E2,5.235509E2,1.20484146E2,2.499005E2,2.2750488E1,1.4700488E1,-3.1599512E1,6.808197E2,2.800608E2,1.4037509E3,7.411652E2,3.740175E2,7.0827997E2,3.9823398E2,-1.8864952E2,3.2330078E2,6.3238275E2,1.1313134E3,7.703359E2,6.1834326E2,8.5180096E2,1.2735073E2,5.7299475E2,5.8822577E2,1.5043399E2,1.6890258E3,4.518505E2,3.2180066E2,5.6533985E1,1.819734E3,8.8817236E2,2.720184E3,4.556005E2,9.1858673E2,6.774943E2,2.1700073E2,5.1482587E2,7.648913E2,1.0601324E3,1.4077616E3,1.1205691E3,6.5100995E2,1.09691E3,9.38258E2,2.389111E3,1.2226343E3,1.371005E2],"split_indices":[7,7,7,7,7,7,7,2,7,7,7,7,7,7,11,7,0,7,2,10,8,7,14,11,7,10,14,8,14,0,0,0,0,14,2,0,0,7,7,0,7,10,14,8,3,0,9,10,8,14,14,8,9,3,10,7,8,8,9,9,11,8,14,8,3,11,7,0,10,11,10,14,11,0,14,7,0,7,11,3,8,11,7,14,9,11,14,5,11,9,14,10,9,3,10,3,14,0,10,0,7,4,14,3,8,3,4,0,0,9,8,3,7,3,8,0,11,3,9,4,9,3,11,11,10,4,3,9,10,7,0,0,10,7,0,0,14,10,0,3,11,9,8,0,3,7,4,11,7,9,0,10,8,0,8,3,4,0,3,8,14,14,7,9,8,10,0,9,10,10,9,3,10,0,0,7,7,0,0,0,0,11,3,9,0,3,0,0,0,0,3,0,0,11,11,0,0,8,14,14,3,0,0,3,10,14,9,10,10,4,8,7,0,0,0,3,9,11,10,14,3,0,0,0,4,0,4,11,10,0,7,0,3,10,3,4,14,9,1,0,0,3,10,3,0,14,8,7,0,11,4,4,14,3,11,0,0,0,0,0,0,0,3,3,11,0,0,0,0,3,14,4,4,0,8,10,11,8,3,0,0,0,0,9,3,0,4,11,0,0,1,14,0,7,3,14,3,0,7,11,8,8,7,10,8,10,10,0,3,14,0,0,0,0,0,0,0,0,9,0,3,0,0,11,0,8,14,0,0,11,11,0,3,4,11,14,8,11,4,0,0,4,7,0,3,3,14,0,4,0,5,3,0,4,5,0,0,11,0,10,4,0,3,11,10,11,9,3,0,8,0,0,0,14,0,7,3,9,3,4,0,0,0,14,8,8,14,3,0,5,7,3,11,11,4,0,0,0,0,11,14,0,0,11,0,10,9,0,7,11,4,10,14,9,9,11,4,0,0,9,0,0,0,0,0,14,3,3,11,0,0,0,0,3,0,0,0,0,1,3,1,0,11,3,0,0,0,0,0,0,9,0,0,0,0,4,11,3,10,0,0,0,0,7,0,0,0,14,14,0,5,11,0,4,0,0,0,0,11,11,0,3,8,0,11,8,0,0,3,4,4,0,0,0,0,0,0,0,0,0,0,0,0,0,0,0,0,0,0,0,0,0,0,0,0,0,0,0,0,0,0,0,0,0,0,0,0,0,0,0,0,0,0,0,0,0,0,0,0,0,0,0,0,0,0,0,0,0,0,0,0,0,0,0,0,0,0,0,0,0,0,0,0,0,0,0,0,0,0,0,0,0,0,0,0,0,0,0,0,0,0,0,0,0,0,0,0,0,0,0,0,0,0,0,0,0,0,0,0,0,0,0,0,0,0,0,0,0,0,0,0,0,0,0,0,0,0,0,0,0,0,0,0,0,0,0,0,0,0,0,0,0,0,0,0,0,0,0,0,0,0,0,0,0,0,0,0,0,0,0,0,0,0,0,0,0,0,0,0,0,0,0,0,0,0,0,0,0,0,0,0,0,0,0,0,0,0,0,0,0,0,0,0,0,0,0,0,0,0,0,0,0,0,0,0,0,0],"split_type":[0,0,0,0,0,0,0,0,0,0,0,0,0,0,0,0,0,0,0,0,0,0,0,0,0,0,0,0,0,0,0,0,0,0,0,0,0,0,0,0,0,0,0,0,0,0,0,0,0,0,0,0,0,0,0,0,0,0,0,0,0,0,0,0,0,0,0,0,0,0,0,0,0,0,0,0,0,0,0,0,0,0,0,0,0,0,0,0,0,0,0,0,0,0,0,0,0,0,0,0,0,0,0,0,0,0,0,0,0,0,0,0,0,0,0,0,0,0,0,0,0,0,0,0,0,0,0,0,0,0,0,0,0,0,0,0,0,0,0,0,0,0,0,0,0,0,0,0,0,0,0,0,0,0,0,0,0,0,0,0,0,0,0,0,0,0,0,0,0,0,0,0,0,0,0,0,0,0,0,0,0,0,0,0,0,0,0,0,0,0,0,0,0,0,0,0,0,0,0,0,0,0,0,0,0,0,0,0,0,0,0,0,0,0,0,0,0,0,0,0,0,0,0,0,0,0,0,0,0,0,0,0,0,0,0,0,0,0,0,0,0,0,0,0,0,0,0,0,0,0,0,0,0,0,0,0,0,0,0,0,0,0,0,0,0,0,0,0,0,0,0,0,0,0,0,0,0,0,0,0,0,0,0,0,0,0,0,0,0,0,0,0,0,0,0,0,0,0,0,0,0,0,0,0,0,0,0,0,0,0,0,0,0,0,0,0,0,0,0,0,0,0,0,0,0,0,0,0,0,0,0,0,0,0,0,0,0,0,0,0,0,0,0,0,0,0,0,0,0,0,0,0,0,0,0,0,0,0,0,0,0,0,0,0,0,0,0,0,0,0,0,0,0,0,0,0,0,0,0,0,0,0,0,0,0,0,0,0,0,0,0,0,0,0,0,0,0,0,0,0,0,0,0,0,0,0,0,0,0,0,0,0,0,0,0,0,0,0,0,0,0,0,0,0,0,0,0,0,0,0,0,0,0,0,0,0,0,0,0,0,0,0,0,0,0,0,0,0,0,0,0,0,0,0,0,0,0,0,0,0,0,0,0,0,0,0,0,0,0,0,0,0,0,0,0,0,0,0,0,0,0,0,0,0,0,0,0,0,0,0,0,0,0,0,0,0,0,0,0,0,0,0,0,0,0,0,0,0,0,0,0,0,0,0,0,0,0,0,0,0,0,0,0,0,0,0,0,0,0,0,0,0,0,0,0,0,0,0,0,0,0,0,0,0,0,0,0,0,0,0,0,0,0,0,0,0,0,0,0,0,0,0,0,0,0,0,0,0,0,0,0,0,0,0,0,0,0,0,0,0,0,0,0,0,0,0,0,0,0,0,0,0,0,0,0,0,0,0,0,0,0,0,0,0,0,0,0,0,0,0,0,0,0,0,0,0,0,0,0,0,0,0,0,0,0,0,0,0,0,0,0,0,0,0,0,0,0,0,0,0,0,0,0,0,0,0,0,0,0,0,0,0,0,0,0,0,0,0,0,0,0,0,0,0,0,0,0,0,0,0,0,0,0,0,0,0,0,0,0,0,0,0,0,0,0,0,0,0,0,0,0,0,0,0,0,0,0],"sum_hessian":[6.376E3,4.243E3,2.133E3,2.387E3,1.856E3,1.538E3,5.95E2,6.52E2,1.735E3,8.51E2,1.005E3,8.22E2,7.16E2,5.2E2,7.5E1,5.51E2,1.01E2,1.003E3,7.32E2,6.2E2,2.31E2,6.26E2,3.79E2,3.53E2,4.69E2,2.21E2,4.95E2,1.94E2,3.26E2,7.4E1,1E0,2.62E2,2.89E2,3.86E2,6.17E2,7.19E2,1.3E1,2.19E2,4.01E2,1E0,2.3E2,3.55E2,2.71E2,3.65E2,1.4E1,3.37E2,1.6E1,2.66E2,2.03E2,3.9E1,1.82E2,2.22E2,2.73E2,1.64E2,3E1,2.58E2,6.8E1,3.65E2,2.1E1,5.97E2,2E1,2.34E2,4.85E2,1.53E2,6.6E1,1.03E2,2.98E2,2.4E1,2.06E2,1.9E1,3.36E2,1.24E2,1.47E2,5E0,3.6E2,1.1E1,3E0,3.22E2,1.5E1,4E0,1.2E1,2.48E2,1.8E1,5.8E1,1.45E2,2.9E1,1E1,2.8E1,1.54E2,7.3E1,1.49E2,4E1,2.33E2,1.59E2,5E0,1.6E1,1.4E1,2.14E2,4.4E1,2E0,6.6E1,3.43E2,2.2E1,3E0,1.8E1,3E0,5.94E2,2E0,1.8E1,5.1E1,1.83E2,5E0,4.8E2,1.8E1,1.35E2,1.3E1,5.3E1,3E0,1E2,3.4E1,2.64E2,2E0,2.2E1,1.4E1,1.92E2,1.6E1,3E0,2.69E2,6.7E1,1.19E2,5E0,1E0,1.46E2,4E0,1E0,1E0,3.59E2,5E0,6E0,1.98E2,1.24E2,1.1E1,4E0,1E0,3E0,4E0,8E0,2.41E2,7E0,7E0,1.1E1,1.5E1,4.3E1,1E0,1.44E2,1.6E1,1.3E1,2E0,8E0,2.2E1,6E0,1.35E2,1.9E1,7E0,6.6E1,1.44E2,5E0,9E0,3.1E1,2.7E1,2.06E2,1.23E2,3.6E1,1E0,4E0,1.3E1,3E0,1E1,4E0,4.3E1,1E0,1.6E1,5E1,7.2E1,2.71E2,5E0,1.7E1,1E0,2E0,1.5E1,3E0,2E0,1E0,2.66E2,3.28E2,1E0,1E0,3E1,2.1E1,6.3E1,1.2E2,4E0,1E0,3.17E2,1.63E2,6E0,1.2E1,1.5E1,1.2E2,8E0,5E0,3E0,5E1,1E0,2E0,2E0,9.8E1,2.1E1,1.3E1,1.48E2,1.16E2,1E0,1E0,9E0,1.3E1,4E0,1E1,7.7E1,1.15E2,2E0,1.4E1,1E0,2E0,4E1,2.29E2,2.5E1,4.2E1,9.5E1,2.4E1,4E0,1E0,7E0,1.39E2,2E0,2E0,3.14E2,4.5E1,4E0,1E0,1.21E2,7.7E1,5.7E1,6.7E1,2E0,9E0,2E0,2E0,1E0,2E0,2E0,2E0,5E0,3E0,2.7E1,2.14E2,1E0,6E0,1E0,6E0,8E0,3E0,6E0,9E0,1E0,4.2E1,1.29E2,1.5E1,1.2E1,4E0,1E0,1.2E1,7E0,1E0,2E1,2E0,1E0,5E0,1.34E2,1E0,1.7E1,2E0,5E0,2E0,5E1,1.6E1,1E2,4.4E1,4E0,5E0,5E0,2.6E1,2E1,7E0,8.7E1,1.19E2,1.01E2,2.2E1,3E0,3.3E1,1.2E1,1E0,2E0,1E0,1.3E1,3E0,1.5E1,3.5E1,1E0,7.1E1,2E0,3E0,2E0,1E0,2.64E2,2E0,5.9E1,2.69E2,1E0,2.9E1,7E0,1.4E1,1E0,6.2E1,5E0,1.15E2,3.08E2,9E0,1.2E1,1.51E2,4E0,2E0,5E0,7E0,1.2E1,3E0,1.5E1,1.05E2,1E0,7E0,1E0,4E0,2E0,1E0,1E1,4E1,1E0,1E0,9.7E1,1E0,1.5E1,6E0,1E0,1.2E1,3E0,1.45E2,1E1,1.06E2,8E0,1E0,9E0,4E0,3E0,1E0,9E0,1E0,6.3E1,1.4E1,1.05E2,1E1,1.2E1,2E0,1E0,1E0,1.8E1,2.2E1,1.09E2,1.2E2,2.3E1,2E0,3.4E1,8E0,5.4E1,4.1E1,6E0,1.8E1,3E0,1E0,5E0,2E0,2.2E1,1.17E2,1E0,1E0,3.13E2,1E0,4.2E1,3E0,1E0,3E0,6.6E1,5.5E1,7E1,7E0,5E1,7E0,4E0,6.3E1,1E0,1E0,7E0,2E0,1E0,1E0,2E0,1E0,1.3E1,1.4E1,4E0,2.1E2,7E0,1E0,2E0,1E0,4E0,2E0,7E0,2E0,2E0,4E1,3E0,1.26E2,3E0,1.2E1,2E0,1E1,2E0,2E0,1E0,1.1E1,1E0,1.9E1,1E0,1E0,4E0,1E0,1.6E1,1.18E2,3E0,1.4E1,1E0,1E0,1E0,4E0,4.9E1,1E0,3E0,1.3E1,5E1,5E1,3.9E1,5E0,4E0,1E0,4E0,1E0,2.4E1,2E0,5E0,1.5E1,6E0,1E0,7.7E1,1E1,1E0,1.18E2,1E2,1E0,2E0,2E1,1.5E1,1.8E1,7E0,5E0,6.8E1,3E0,2E0,1E0,1.1E1,2.53E2,1E0,1E0,1.3E1,4.6E1,5E0,2.64E2,3E0,4E0,1E1,4E0,3E0,5.9E1,1E0,4E0,7.4E1,4.1E1,1.8E1,2.9E2,7E0,2E0,1.1E1,1E0,1.03E2,4.8E1,3E0,2E0,1E0,6E0,1E0,2E0,8E0,7E0,6.5E1,4E1,6E0,1E0,2E0,2E0,1E0,1E0,2E0,8E0,2.9E1,1.1E1,1E0,9.6E1,1E0,1.4E1,5E0,1E0,2E0,1E1,2E0,1E0,6E0,1.39E2,3E0,7E0,2.2E1,8.4E1,4E0,4E0,5E0,4E0,3E0,1E0,5E0,4E0,1.9E1,4.4E1,1.1E1,3E0,7.3E1,3.2E1,2E0,8E0,6E0,6E0,1.1E1,7E0,1.9E1,3E0,9.6E1,1.3E1,8.7E1,3.3E1,2E1,3E0,1E0,1E0,2E1,1.4E1,4E0,4E0,5E1,4E0,2.7E1,1.4E1,5E0,1E0,9E0,9E0,1E0,1E0,7E0,1.5E1,9.4E1,2.3E1,2.89E2,2.4E1,8E0,3.4E1,1E0,2E0,2E0,1E0,5.8E1,8E0,4E0,5.1E1,5.5E1,1.5E1,5E0,2E0,1.2E1,3.8E1,2E0,5E0,1E0,3E0,1.9E1,4.4E1,5E0,2E0,6E0,7E0,4E0,1E1,1E0,3E0,9E0,2.01E2,1E0,3E0,3.7E1,3E0,2E0,1E0,1.07E2,1.9E1,1E0,2E0,7E0,5E0,1E0,1E0,1E0,1E0,1.5E1,4E0,3E0,1.3E1,5E0,1.13E2,2E0,1E0,4E0,1E1,7E0,4.2E1,2.5E1,2.5E1,3E0,4.7E1,3E0,2E0,3E0,1E0,2E0,2E0,2E0,1.3E1,5E0,1E0,4.8E1,2.9E1,3E0,7E0,3E1,8.8E1,3.2E1,6.8E1,1E1,1E1,6E0,9E0,1.7E1,1E0],"tree_param":{"num_deleted":"0","num_feature":"15","num_nodes":"697","size_leaf_vector":"1"}},{"base_weights":[-3.9286423E1,6.9335938E3,-1.6785408E3,3.739179E3,1.2492229E4,-5.259208E3,5.8693866E2,5.7587666E3,8.7902246E2,1.130086E4,1.919845E4,-8.437457E3,-4.464833E3,4.4212793E3,-6.219879E2,6.5616143E3,-5.887148E3,-2.8845544E2,3.03217E3,1.27986E4,8.620492E3,2.0154498E3,9.747778E3,-7.56449E3,-1.0506721E3,-3.695018E2,-4.7084883E3,7.233235E3,-2.9610637E3,-1.9610945E3,4.5378877E3,6.2246E3,1.0983819E4,-1.9034326E2,-6.513076E3,9.1195294E2,-3.766817E2,3.5601018E3,7.886096E2,6.166505E3,1.3177127E4,7.8621675E3,1.4006122E3,2.6821506E2,1.0373989E3,-2.0256942E3,-7.6755474E3,3.364856E2,-4.685616E3,-5.755899E3,-3.484047E3,5.179509E3,9.754664E3,-5.9362603E3,-1.6343824E3,7.1135767E2,-2.606034E3,1.0176376E4,3.1934717E3,5.5352925E3,7.267265E3,1.1287069E4,1.24640724E2,5.748867E2,-4.0863693E2,-2.4054531E3,-6.7454683E3,-9.7206195E2,9.96718E2,1.7441623E2,3.8804714E3,-1.366718E3,1.3142953E3,1.301602E3,7.2742637E3,1.5589446E4,1.2661557E4,1.2310848E4,7.235885E3,5.610459E2,-4.1060107E2,-8.367075E2,-7.138673E2,-7.9841614E2,1.5500597E3,2.227793E1,-5.1132144E3,-4.00537E3,-6.545068E3,-1.2906738E3,-3.8141663E3,3.7336694E3,7.444466E3,9.167811E3,1.5986403E3,-2.1915657E3,-6.211792E3,-8.723077E2,-4.263664E3,9.6722885E1,3.0208489E3,-3.835909E3,-5.934529E2,4.497801E3,1.4327718E4,1.9409286E3,5.585472E3,1.0222988E3,5.5870146E3,7.9425005E3,5.919657E3,1.1505338E4,2.6969073E2,5.1727932E1,-4.125459E2,-1.7672179E2,-6.8792615E2,-1.2906719E3,1.5402883E3,6.592467E3,4.1076532E2,-1.541918E3,1.8558672E3,4.0586167E3,-2.282319E3,6.1185646E1,-2.0143257E2,-1.9443643E2,1.6033522E3,2.988989E2,-1.8802794E2,3.9655984E3,8.432897E2,3.4307449E3,1.4074434E4,1.3547E3,1.1675051E4,9.288239E3,2.5802375E3,6.588343E3,9.030429E2,-1.5539714E2,1.3551875E2,-1.7103419E3,1.9495451E2,-1.1468562E3,1.8910459E3,-5.613949E3,-1.7396934E3,-1.3584966E3,-6.7675034E3,-7.9060645E3,-5.789255E3,6.7538855E2,-2.0128035E3,-4.5081353E3,-3.2951628E3,1.834914E3,5.4242007E3,1.336978E3,6.838124E3,7.827874E3,1.0182343E4,-2.6280376E3,-4.6035156E-1,-6.307436E2,-2.8441309E1,-3.119938E2,-1.8162826E3,-1.9466603E3,-5.1864194E3,-3.1880518E2,1.0454385E3,2.5731982E3,6.216666E3,-5.274307E3,-2.3223396E3,-1.6660618E3,1.2628687E3,8.366067E2,5.206136E3,1.5138126E4,2.1048975E2,3.7804785E3,-3.251404E2,3.432925E3,9.120832E3,1.3415814E2,3.2225587E0,8.45944E3,5.4526606E3,6.584697E3,9.768928E3,2.6312937E3,6.335723E3,1.2441259E4,7.0539546E3,-2.453022E3,-1.02042114E3,8.855212E2,2.5931082E2,-1.7155957E2,1.1175396E4,2.7124324E3,-1.7320906E2,-1.8388257E2,-1.7714355E1,2.4855144E2,6.0759766E1,3.7187822E3,9.7556915E2,-4.2692392E2,8.457607E1,2.094936E3,-9.375273E1,3.044873E1,4.8047543E2,2.1188617E4,1.2472971E4,7.7717456E2,1.1932795E3,9.7646533E2,1.7856358E2,7.1427715E3,3.9178525E3,1.0058692E1,-3.3368263E1,-2.4141616E3,-1.7688745E2,-1.6495195E2,3.696542E2,-3.6291525E2,1.7177252E3,2.562836E3,1.0289839E3,-5.9821356E2,-1.1501377E2,-2.4042325E2,-2.0530762E1,-3.2776833E3,1.9984291E3,-8.756247E3,-5.4314014E3,-8.900278E3,-5.9883228E3,-8.4365204E2,-4.985876E3,-1.2042367E2,6.8167563E3,8.359093E1,-2.2891108E3,9.471335E2,-4.685077E3,-3.487791E3,-1.4913817E3,-2.7276926E3,2.1890708E3,4.576049E2,5.9103735E3,9.389116E3,6.236961E3,7.2933525E3,1.127355E4,1.032065E4,3.3492217E3,-3.1621094E1,-3.1269415E2,-5.341562E2,7.9529297E2,-4.4016914E3,-8.994408E2,1.8512816E3,-4.381382E3,-3.5924463E2,-5.892533E3,2.4623728E3,-4.8659872E2,7.822656E2,3.6780732E3,2.9922068E3,8.0941925E2,3.2263367E3,1.1121879E3,-5.4208174E3,-1.5309823E3,-3.864214E3,-1.5562365E3,-2.4601426E3,-7.2464856E2,2.051207E3,-4.6072793E3,3.2028704E3,-4.8595963E2,6.1629956E3,3.830462E3,7.8115244E3,1.6489938E4,-1.1080131E3,2.0829991E2,1.5092288E3,5.269181E3,5.3341055E3,-9.395569E2,4.437546E3,1.2360221E3,6.845665E3,1.1691882E4,1.2366045E2,9.20772E3,4.5993945E2,5.4937188E3,5.2397495E3,7.799818E3,1.048955E4,3.8170407E2,3.39703E3,1.0162998E3,1.5534375E2,6.595413E3,1.2977358E3,4.8988766E2,7.5496445E3,2.0399072E2,-4.142627E1,-2.795563E3,-1.476388E3,-5.0098798E2,1.9262408E2,-1.3302734E2,1.6090156E3,-1.7844405E2,6.098114E2,6.7652217E3,1.8031327E3,-1.2177278E3,2.8269614E3,4.235855E3,9.9061255E2,3.0577434E3,-1.7804662E2,1.6242115E3,2.3567363E3,5.8368164E2,5.759763E2,1.2986537E4,7.6114272E3,5.4841997E3,4.406339E3,1.2286875E3,-2.787317E3,-6.911553E1,1.3548477E3,-9.1327374E2,-1.5201509E3,6.817052E2,2.0549004E2,5.216875E1,1.1445134E3,3.2948145E3,-1.9159961E2,1.9025524E3,-4.844045E3,-1.7080273E3,-1.7966415E3,2.569756E3,-9.5060646E1,-8.899061E3,-1.9790735E3,-5.5912695E3,-1.3528398E2,-8.948674E2,-6.323194E3,-3.033793E2,-3.4643787E3,-5.673868E3,-4.0953525E2,3.2645712E2,8.878818E2,1.3463174E2,7.9332715E2,-1.8892781E3,-2.461068E3,1.2902579E2,-4.0730889E3,4.136093E3,-4.852069E3,-2.3818545E3,-3.8721514E3,-2.3249866E3,4.6391465E3,-1.9884465E3,5.4194336E0,-3.2003728E3,1.2988582E3,3.622896E3,-2.6479126E2,2.1668142E3,7.4292026E3,5.080128E3,6.750069E1,9.835732E3,1.7152281E3,6.4771157E3,7.935596E1,7.356058E3,7.088441E3,1.7871656E4,9.618588E3,1.20385E4,8.645508E0,4.4079922E2,-6.7037946E2,2.8678476E2,-4.651193E3,-9.5333885E1,-3.3165942E3,-2.3945877E2,5.996694E2,-6.842446E2,-4.9888947E2,-3.6815235E1,6.3713573E1,-9.0375E1,-6.067497E2,-1.2841104E2,5.415043E3,-4.2025504E2,-1.6922323E3,-1.2882025E2,-7.081611E1,1.4885248E3,1.1173357E3,1.0111247E3,2.8558447E2,3.1372861E3,-1.7760416E1,3.0886035E2,6.771309E1,4.110593E3,-4.0022402E3,-5.80769E3,-2.3095566E3,2.1607036E3,2.4929024E2,-3.9629617E3,-2.511535E3,-4.9106113E1,-3.1222983E3,-2.1866528E3,-1.5332684E3,6.0952716E2,-1.201376E3,2.4363992E3,-4.9028843E3,-1.7557285E3,9.310449E1,3.8732608E2,-1.1162058E3,1.3326358E2,6.4325596E3,2.5811356E2,2.3783901E3,5.166744E3,9.486269E2,2.9278418E2,3.5128184E3,1.472397E4,-7.3211913E0,-1.5888077E2,-4.702562E2,3.3761746E3,4.5504463E3,1.0492142E4,1.5020068E3,6.444582E3,-2.1597595E3,3.2955222E3,5.3242173E3,2.8856965E3,3.726181E2,1.2705668E3,8.624551E3,8.756616E2,3.7693927E2,1.226691E4,1.0481904E3,3.5901108E2,9.861045E1,-2.9619532E1,1.673933E2,5.5533905E2,1.883763E2,5.651899E2,6.091901E2,1.1735101E3,1.294665E3,7.8765375E2,3.916355E2,6.598653E1,1.8630468E1,1.2308633E2,-3.694922E1,6.0250782E1,4.8458722E2,7.609535E2,8.1663934E2,2.2329492E2,6.377832E1,-1.03952736E2,-3.5327518E2,-8.165064E1,-1.09322975E2,-2.8221286E2,-1.10932106E2,1.2294391E2,-9.70989E1,3.963551E1,1.4775821E2,-8.442974E1,-3.039131E1,9.2229047E2,7.392261E0,3.0061874E2,-1.7180376E2,4.979558E1,3.7205487E2,7.827907E1,6.1153845E2,3.580311E2,-2.8594044E1,3.2135144E2,4.6366146E1,4.0026437E2,4.6548733E1,1.9708301E2,5.12573E2,1.3394071E3,7.745656E2,2.8371414E2,-1.0297422E2,5.903293E2,9.369873E1,4.6011362E2,3.455918E1,1.9389873E2,-3.079131E1,-2.984725E2,3.2163574E1,1.7106358E2,-1.6027965E2,3.1051432E1,-2.043444E2,3.3152344E0,1.3734143E2,-1.2179937E2,2.2888821E2,3.815768E1,4.2063576E1,3.5178638E2,1.3152501E2,-9.130911E1,6.801E1,2.6041708E2,-1.9554375E2,-5.09665E2,-2.0409792E2,1.2971927E2,-2.746605E2,3.8551174E1,2.0167735E2,5.643688E2,-9.025563E2,-1.4767325E2,-4.4721124E2,3.996541E2,-5.642703E2,-9.1830765E1,-6.645836E2,-3.112981E2,4.554734E2,-5.060366E2,-3.6305164E2,-1.7556111E2,-4.8765216E2,-6.037829E2,2.1139896E2,-7.505371E1,-2.490802E2,1.16069435E2,-2.5601746E2,-5.0786476E1,-8.019622E1,1.0170052E2,-6.4021194E1,-5.003977E2,7.087273E1,5.672594E2,-4.8948007E2,2.5522119E2,-1.5090839E2,-3.6624496E2,2.4121947E2,-3.9353622E2,-2.5101158E2,1.912561E2,5.729212E2,1.2295078E2,-3.4241753E0,-2.5884235E2,-8.3742E1,-3.5054794E2,3.4526806E1,1.8496385E2,1.8133084E2,4.1505377E2,3.9441456E1,3.3975104E2,6.5056573E2,1.7106008E3,3.5256393E2,5.589032E2,1.0086608E3,2.785419E2,3.3156467E2,8.610743E0,6.5562585E2,-1.6458105E1,2.568292E2,7.434792E2,2.7281808E2,7.944489E2,3.8809384E2,2.1241584E3,9.773262E2,3.7337814E2,1.2423538E3,4.1752945E2,-2.3781933E1,-1.5627739E2,-4.9326343E2,-1.0591103E2,-1.3584857E2,-3.8281406E2,-6.1092506E1,2.0492036E2,-1.4177174E2,7.580869E1,1.0012988E1,1.069658E3,-1.5010655E2,1.0057617E0,-3.121231E2,-8.73692E1,5.181935E2,-1.978511E1,3.4835144E2,-3.5709114E1,9.267965E1,5.909338E2,1.5766895E2,-2.6852476E1,-4.44418E1,1.23779594E2,3.6941354E2,2.0059352E2,5.2277027E1,-8.790575E1,4.5654703E2,1.145542E2,-4.2422003E2,1.6453934E2,-6.4395557E2,-5.3968646E2,-9.457031E0,-2.5985834E2,5.291565E2,-3.6159406E2,-4.973893E2,-3.4863254E2,9.024163E2,-2.6180627E2,7.554261E2,-4.320565E1,-8.530539E1,-3.2774667E2,3.1052072E2,-2.3184639E2,-2.7784836E1,-1.9483116E2,9.265805E2,5.024721E0,8.01648E1,-3.961147E2,1.0671114E2,2.8432504E2,-5.247282E2,-1.9551749E2,-2.2970763E2,-8.0958725E1,-1.6669263E2,5.433379E1,6.638361E2,1.5698653E2,1.6039885E1,3.8303183E2,5.497633E2,1.4252608E2,8.264467E2,1.6541084E3,-1.23019714E2,2.2024353E2,8.9503046E2,2.4592928E2,3.1743542E2,5.449099E2,3.102286E2,1.0968539E3,1.7401172E2,3.938379E1,9.664385E1,7.0085455E2,-2.5419112E2,-5.748584E1,-2.4538623E2,3.6373242E2,4.251793E2,7.7945844E2,5.641286E2,2.0525145E2,-3.298251E1,2.5270657E2,1.6828251E3,7.0419006E2,-4.531344E1,2.3177412E2,9.514595E2,1.6412313E3],"categories":[],"categories_nodes":[],"categories_segments":[],"categories_sizes":[],"default_left":[0,0,1,0,0,1,0,0,0,0,0,0,0,0,0,0,0,0,0,0,0,0,0,0,0,0,0,0,0,0,0,0,1,0,0,0,0,0,0,0,0,0,0,0,0,0,0,0,0,0,0,0,0,0,0,0,0,0,0,0,0,0,0,0,0,0,0,0,0,0,0,0,0,0,0,0,0,0,0,0,0,0,0,0,0,0,0,0,0,0,0,1,0,0,0,0,0,0,0,0,0,0,0,0,0,0,0,1,0,0,0,1,0,0,0,0,0,0,0,0,0,0,0,0,0,0,0,0,0,0,0,0,0,0,0,0,0,0,0,0,0,0,0,0,0,0,0,0,0,0,0,0,0,0,0,0,0,0,0,0,0,0,0,0,0,0,0,0,0,0,0,0,0,0,0,0,0,0,0,0,0,0,0,0,0,0,0,0,0,0,0,0,0,0,0,0,0,0,0,0,0,0,0,0,0,0,0,0,0,0,0,0,0,0,0,0,0,0,0,0,0,0,0,0,0,0,0,0,0,0,0,0,0,0,0,0,0,0,0,0,0,0,0,0,0,0,0,0,0,0,0,0,0,0,0,0,0,0,0,0,0,0,0,1,0,0,0,0,0,0,0,0,0,0,0,0,0,0,0,0,0,0,0,0,0,0,0,0,0,0,0,0,0,0,0,0,0,0,0,0,0,0,0,0,0,0,0,0,0,0,0,0,0,0,0,0,0,0,0,0,0,0,0,0,0,0,0,0,0,0,0,0,0,0,0,0,0,0,0,0,0,0,0,0,0,0,0,0,0,0,0,0,0,0,0,0,0,0,0,0,0,0,0,0,0,0,0,0,0,0,0,0,0,0,0,0,0,0,0,0,0,0,0,0,0,0,0,0,0,0,0,0,0,0,0,0,0,0,0,0,0,0,0,0,0,0,0,0,0,0,0,0,0,0,0,0,0,0,0,0,0,0,0,0,0,0,0,0,0,0,0,0,0,0,0,0,0,0,0,0,0,0,0,0,0,0,0,0,0,0,0,0,0,0,0,0,0,0,0,0,0,0,0,0,0,0,0,0,0,0,0,0,0,0,0,0,0,0,0,0,0,0,0,0,0,0,0,0,0,0,0,0,0,0,0,0,0,0,0,0,0,0,0,0,0,0,0,0,0,0,0,0,0,0,0,0,0,0,0,0,0,0,0,0,0,0,0,0,0,0,0,0,0,0,0,0,0,0,0,0,0,0,0,0,0,0,0,0,0,0,0,0,0,0,0,0,0,0,0,0,0,0,0,0,0,0,0,0,0,0,0,0,0,0,0,0,0,0,0,0,0,0,0,0,0,0,0,0,0,0,0,0,0,0,0,0,0,0,0,0,0,0,0,0,0,0,0,0,0,0,0,0,0,0,0,0,0,0,0,0,0,0,0,0,0,0,0,0,0,0,0,0,0,0,0,0,0,0,0,0,0,0,0,0,0,0,0,0,0,0,0,0,0,0,0,0,0,0,0,0,0,0,0,0,0,0,0,0,0,0,0,0,0,0,0,0,0,0,0,0,0,0,0,0,0,0,0,0,0,0,0,0,0,0,0,0,0,0,0,0,0,0,0,0,0,0,0,0,0,0,0,0,0,0,0,0,0,0,0,0,0,0,0,0,0,0,0,0,0,0,0,0,0,0,0,0,0],"id":1,"left_children":[1,3,5,7,9,11,13,15,17,19,21,23,25,27,29,31,33,35,37,39,41,-1,43,45,-1,47,49,51,53,55,57,59,61,63,65,-1,67,69,71,73,75,77,-1,-1,-1,79,81,83,85,87,89,91,93,95,97,99,101,103,105,107,109,111,-1,-1,-1,113,115,117,119,121,123,125,127,129,131,133,135,137,139,141,-1,-1,-1,143,145,-1,147,149,151,153,155,157,159,161,-1,163,165,167,169,171,173,175,177,179,181,183,185,187,189,191,193,195,-1,-1,-1,-1,-1,197,199,201,203,205,207,209,211,-1,-1,-1,213,-1,-1,215,-1,-1,217,-1,219,221,-1,223,-1,225,-1,227,229,231,233,235,237,239,241,243,245,247,249,251,253,255,257,-1,259,261,263,265,-1,-1,-1,267,269,271,273,275,277,279,281,283,285,287,289,291,293,295,297,299,301,303,305,-1,-1,307,309,311,313,315,317,319,321,323,325,327,-1,-1,329,331,333,-1,-1,-1,-1,335,-1,-1,-1,337,339,-1,-1,341,343,-1,-1,-1,-1,345,347,-1,-1,349,351,353,-1,-1,355,357,359,-1,-1,-1,-1,361,363,365,367,369,371,-1,373,375,377,379,381,383,385,387,389,391,393,395,397,399,401,403,405,407,409,-1,-1,411,-1,413,415,417,419,421,423,425,427,429,431,433,435,437,-1,439,441,443,445,447,449,451,453,455,457,459,461,463,465,467,-1,469,471,473,475,477,479,481,483,-1,485,487,489,491,493,495,-1,497,499,501,503,-1,-1,505,-1,507,509,511,513,-1,515,-1,-1,517,519,521,523,525,527,529,531,-1,533,-1,-1,-1,535,537,539,541,543,545,-1,547,549,551,553,-1,-1,555,557,559,561,563,565,567,569,-1,571,573,575,-1,-1,577,579,581,583,585,-1,-1,-1,-1,587,589,591,593,595,597,599,601,603,605,607,-1,609,611,613,-1,615,617,619,-1,621,623,625,-1,627,629,631,633,635,-1,-1,637,-1,639,-1,641,643,-1,645,-1,-1,-1,-1,-1,-1,647,649,651,653,655,657,-1,659,661,663,665,-1,-1,667,669,671,673,675,-1,677,679,681,683,685,687,689,691,693,695,697,-1,-1,699,-1,701,-1,703,705,-1,-1,-1,707,-1,-1,709,711,713,715,717,719,721,723,725,727,729,-1,731,733,-1,735,-1,-1,-1,-1,-1,-1,-1,-1,-1,-1,-1,-1,-1,-1,-1,-1,-1,-1,-1,-1,-1,-1,-1,-1,-1,-1,-1,-1,-1,-1,-1,-1,-1,-1,-1,-1,-1,-1,-1,-1,-1,-1,-1,-1,-1,-1,-1,-1,-1,-1,-1,-1,-1,-1,-1,-1,-1,-1,-1,-1,-1,-1,-1,-1,-1,-1,-1,-1,-1,-1,-1,-1,-1,-1,-1,-1,-1,-1,-1,-1,-1,-1,-1,-1,-1,-1,-1,-1,-1,-1,-1,-1,-1,-1,-1,-1,-1,-1,-1,-1,-1,-1,-1,-1,-1,-1,-1,-1,-1,-1,-1,-1,-1,-1,-1,-1,-1,-1,-1,-1,-1,-1,-1,-1,-1,-1,-1,-1,-1,-1,-1,-1,-1,-1,-1,-1,-1,-1,-1,-1,-1,-1,-1,-1,-1,-1,-1,-1,-1,-1,-1,-1,-1,-1,-1,-1,-1,-1,-1,-1,-1,-1,-1,-1,-1,-1,-1,-1,-1,-1,-1,-1,-1,-1,-1,-1,-1,-1,-1,-1,-1,-1,-1,-1,-1,-1,-1,-1,-1,-1,-1,-1,-1,-1,-1,-1,-1,-1,-1,-1,-1,-1,-1,-1,-1,-1,-1,-1,-1,-1,-1,-1,-1,-1,-1,-1,-1,-1,-1,-1,-1,-1,-1,-1,-1,-1,-1,-1,-1,-1,-1,-1,-1,-1,-1,-1,-1,-1,-1,-1,-1,-1,-1,-1,-1,-1,-1,-1,-1,-1,-1,-1],"loss_changes":[7.362293E10,2.1722857E10,4.2306798E10,4.500481E9,3.3543864E9,5.06479E9,1.4812968E10,4.3115295E9,8.153303E8,1.4232084E9,3.998679E8,6.4849715E8,1.6137769E9,1.5922674E10,1.6799283E10,5.694976E8,1.0573402E8,1.7857176E8,1.3221946E8,5.287813E8,4.6164992E8,0E0,7.571904E6,1.6099328E8,0E0,2.819119E8,1.9395973E9,2.8234465E9,8.2709094E8,3.328344E9,3.7653197E9,2.4726118E8,7.156506E7,1.1604926E8,9.547648E6,0E0,1.7268486E8,9.911296E7,2.7855846E7,7.13689E7,8.742093E7,2.5918669E8,0E0,0E0,0E0,3.9972324E7,4.4594176E7,1.1142058E8,2.8423808E7,1.1093463E9,5.0699776E8,9.808328E8,7.60406E8,5.345229E7,2.9282973E8,5.3343744E8,3.846695E9,2.1986335E9,1.2055693E9,5.147597E7,9.493606E7,2.1469952E7,0E0,0E0,0E0,1.7215366E7,4.494208E6,1.1965558E8,2.0713808E8,2.8834978E7,1.0148429E8,7.639178E6,2.1014324E7,2.7096396E7,1.2560832E7,5.380311E8,1.129472E7,3.3125568E8,7.065293E7,2.486421E6,0E0,0E0,0E0,3.8380412E7,3.80336E7,0E0,1.0504288E7,1.8770486E9,5.3542502E8,1.3481611E8,2.0629094E8,5.999291E8,3.361147E8,2.3159808E8,0E0,5.715186E6,3.2220928E7,6.078831E7,6.045869E7,1.1781024E8,9.70215E7,2.0886692E9,1.1788483E9,1.0456538E8,6.260531E8,1.1183997E9,1.0264822E9,1.221219E6,4.7266816E7,1.8614733E8,5.994688E7,2.4726272E7,0E0,0E0,0E0,0E0,0E0,3.8647376E7,9.422728E6,2.4762406E8,7.9772584E7,1.700325E6,2.419654E6,1.2247782E8,2.2256492E7,0E0,0E0,0E0,1.5213248E7,0E0,0E0,1.3898224E7,0E0,0E0,1.3447373E8,0E0,6.861824E6,2.90304E7,0E0,9.934694E7,0E0,1.7047881E5,0E0,2.331702E7,2.7074876E7,4.1787584E7,1.7632248E7,9.554848E6,2.56537E6,8.6341165E8,2.872443E8,3.2612454E8,7.3845555E8,1.2789267E8,4.015952E7,2.554066E8,1.181463E8,1.5301603E8,2.3875789E8,0E0,1.1013222E8,1.0748211E8,8.545792E7,4.778128E6,0E0,0E0,0E0,1.4012358E8,9.796862E7,1.0982741E8,7.627949E7,9.826424E7,6.0171024E7,5.004976E7,9.613085E7,2.626263E8,5.515295E8,2.785515E8,1.0136534E9,2.659279E7,2.246432E7,3.862057E8,1.2183625E7,4.9246746E8,4.257449E8,1.88736E8,2.2413926E8,0E0,0E0,3.7255936E7,4.544205E7,5.882163E7,1.3581235E8,6.440872E6,7.761946E7,2.1338112E7,1.997312E6,1.9709872E7,2.4839528E7,1.2976525E7,0E0,0E0,2.834899E8,9.813225E7,1.0128338E8,0E0,0E0,0E0,0E0,2.4455168E7,0E0,0E0,0E0,1.1856472E7,1.738042E7,0E0,0E0,4.503168E7,3.2078848E7,0E0,0E0,0E0,0E0,1.2668416E7,1.691752E7,0E0,0E0,7.717768E6,1.0260937E7,2.3984074E7,0E0,0E0,1.37807E5,1.5954504E7,1.8491002E7,0E0,0E0,0E0,0E0,2.0071136E8,1.1086006E8,4.6163456E7,3.1984128E7,3.501363E7,1.3324621E8,0E0,2.776284E8,2.4824348E7,2.1887424E7,1.5436568E8,2.5682336E7,1.6093024E8,8.53673E7,1.3401651E8,1.189264E8,9.378048E6,1.0378915E8,5.881733E7,7.700992E7,6.730624E7,8.879437E7,3.165952E7,2.046834E8,3.375616E7,1.3436988E7,0E0,0E0,3.5753096E7,0E0,5.029888E6,5.184998E7,5.6657204E7,1.5229952E7,2.7459495E6,8.334784E6,1.04413096E8,8.47579E7,5.0715148E7,1.4861862E8,2.1486528E7,2.833428E7,1.2995648E7,0E0,2.3744102E8,6.2475296E7,1.0780826E8,4.562804E8,2.9934592E7,1.8757405E8,2.4347789E8,1.3308032E7,9.62852E5,8.3644735E6,1.741888E6,2.0697888E7,5.401485E7,8.980982E8,1.3762608E6,0E0,2.2332314E8,2.8635546E8,4.1385664E7,5.7555955E8,6.719475E7,2.824508E8,3.1104627E8,5.8541056E7,0E0,1.9631744E7,1.4856345E6,4.358451E7,3.3614464E7,1.3014502E8,1.2916096E8,0E0,4.523124E6,4.8303125E5,9.266852E5,4.6514944E7,0E0,0E0,1.439232E6,0E0,3.374672E6,2.7753216E7,2.6305744E7,5.610299E7,0E0,3.4900715E6,0E0,0E0,1.2604014E7,7.229773E7,3.5143464E7,2.8323444E7,5.554021E7,3.72464E7,2.362009E7,1.5302172E7,0E0,2.875095E5,0E0,0E0,0E0,2.1044736E7,1.134848E7,5.7947904E7,5.150304E6,1.8389525E6,4.954424E6,0E0,5.52612E5,5.5606685E6,6.57041E6,1.8755316E7,0E0,0E0,6.111261E6,6.213264E6,9.898377E6,6.805856E6,2.0680256E7,4.6673656E7,1.5569608E7,6.171069E7,0E0,3.1740672E7,9.236018E7,1.2603904E7,0E0,0E0,4.870707E7,1.3859853E8,1.9460352E7,2.6855936E7,2.137874E7,0E0,0E0,0E0,0E0,1.756811E7,9.7336E6,4.9490905E6,9.5789E6,2.7576576E7,8.652954E7,1.570872E7,1.0443264E8,6.912922E7,4.10608E6,3.97756E7,0E0,1.390156E6,2.7723184E7,2.302784E7,0E0,1.392897E7,1.568233E8,2.9342336E7,0E0,3.742208E6,1.5358148E7,4.6809856E7,0E0,1.5207936E7,1.191936E7,1.061536E8,4.816077E7,4.501197E7,0E0,0E0,2.703535E7,0E0,4.885392E6,0E0,1.811168E6,2.4206254E7,0E0,5.3063965E6,0E0,0E0,0E0,0E0,0E0,0E0,1.6735438E8,3.270702E6,4.9909184E7,5.7115956E7,4.0927056E7,1.0875483E8,0E0,5.4894525E6,3.3305652E6,2.660944E7,6.0462345E6,0E0,0E0,1.513736E6,1.4927654E8,6.155264E7,1.0637488E7,9.147747E7,0E0,5.6863744E7,2.6202714E8,3.6431616E8,1.7274752E7,1.0973555E8,5.573243E7,3.1905904E8,1.1926107E8,9.27865E7,1.308992E7,1.89082E5,0E0,0E0,5.4754275E6,0E0,6.591424E6,0E0,3.1589256E7,2.06856E6,0E0,0E0,0E0,3.445412E8,0E0,0E0,6.3642064E7,1.36424E8,8.163302E7,1.177344E6,3.70142E5,2.1031904E7,5.0626624E7,5.805424E7,6.488243E7,4.3522976E7,4.3208044E7,0E0,1.8011968E8,1.6380086E7,0E0,8.344243E7,0E0,0E0,0E0,0E0,0E0,0E0,0E0,0E0,0E0,0E0,0E0,0E0,0E0,0E0,0E0,0E0,0E0,0E0,0E0,0E0,0E0,0E0,0E0,0E0,0E0,0E0,0E0,0E0,0E0,0E0,0E0,0E0,0E0,0E0,0E0,0E0,0E0,0E0,0E0,0E0,0E0,0E0,0E0,0E0,0E0,0E0,0E0,0E0,0E0,0E0,0E0,0E0,0E0,0E0,0E0,0E0,0E0,0E0,0E0,0E0,0E0,0E0,0E0,0E0,0E0,0E0,0E0,0E0,0E0,0E0,0E0,0E0,0E0,0E0,0E0,0E0,0E0,0E0,0E0,0E0,0E0,0E0,0E0,0E0,0E0,0E0,0E0,0E0,0E0,0E0,0E0,0E0,0E0,0E0,0E0,0E0,0E0,0E0,0E0,0E0,0E0,0E0,0E0,0E0,0E0,0E0,0E0,0E0,0E0,0E0,0E0,0E0,0E0,0E0,0E0,0E0,0E0,0E0,0E0,0E0,0E0,0E0,0E0,0E0,0E0,0E0,0E0,0E0,0E0,0E0,0E0,0E0,0E0,0E0,0E0,0E0,0E0,0E0,0E0,0E0,0E0,0E0,0E0,0E0,0E0,0E0,0E0,0E0,0E0,0E0,0E0,0E0,0E0,0E0,0E0,0E0,0E0,0E0,0E0,0E0,0E0,0E0,0E0,0E0,0E0,0E0,0E0,0E0,0E0,0E0,0E0,0E0,0E0,0E0,0E0,0E0,0E0,0E0,0E0,0E0,0E0,0E0,0E0,0E0,0E0,0E0,0E0,0E0,0E0,0E0,0E0,0E0,0E0,0E0,0E0,0E0,0E0,0E0,0E0,0E0,0E0,0E0,0E0,0E0,0E0,0E0,0E0,0E0,0E0,0E0,0E0,0E0,0E0,0E0,0E0,0E0,0E0,0E0,0E0,0E0,0E0,0E0,0E0,0E0,0E0,0E0,0E0,0E0,0E0,0E0,0E0,0E0,0E0,0E0,0E0,0E0,0E0,0E0,0E0,0E0,0E0,0E0,0E0,0E0,0E0,0E0,0E0,0E0,0E0,0E0,0E0,0E0],"parents":[2147483647,0,0,1,1,2,2,3,3,4,4,5,5,6,6,7,7,8,8,9,9,10,10,11,11,12,12,13,13,14,14,15,15,16,16,17,17,18,18,19,19,20,20,22,22,23,23,25,25,26,26,27,27,28,28,29,29,30,30,31,31,32,32,33,33,34,34,36,36,37,37,38,38,39,39,40,40,41,41,45,45,46,46,47,47,48,48,49,49,50,50,51,51,52,52,53,53,54,54,55,55,56,56,57,57,58,58,59,59,60,60,61,61,65,65,66,66,67,67,68,68,69,69,70,70,71,71,72,72,73,73,74,74,75,75,76,76,77,77,78,78,79,79,83,83,84,84,86,86,87,87,88,88,89,89,90,90,91,91,92,92,93,93,95,95,96,96,97,97,98,98,99,99,100,100,101,101,102,102,103,103,104,104,105,105,106,106,107,107,108,108,109,109,110,110,111,111,117,117,118,118,119,119,120,120,121,121,122,122,123,123,124,124,128,128,131,131,134,134,136,136,137,137,139,139,141,141,143,143,144,144,145,145,146,146,147,147,148,148,149,149,150,150,151,151,152,152,153,153,154,154,155,155,156,156,157,157,158,158,160,160,161,161,162,162,163,163,167,167,168,168,169,169,170,170,171,171,172,172,173,173,174,174,175,175,176,176,177,177,178,178,179,179,180,180,181,181,182,182,183,183,184,184,185,185,186,186,189,189,190,190,191,191,192,192,193,193,194,194,195,195,196,196,197,197,198,198,199,199,202,202,203,203,204,204,209,209,213,213,214,214,217,217,218,218,223,223,224,224,227,227,228,228,229,229,232,232,233,233,234,234,239,239,240,240,241,241,242,242,243,243,244,244,246,246,247,247,248,248,249,249,250,250,251,251,252,252,253,253,254,254,255,255,256,256,257,257,258,258,259,259,260,260,261,261,262,262,263,263,264,264,267,267,269,269,270,270,271,271,272,272,273,273,274,274,275,275,276,276,277,277,278,278,279,279,280,280,281,281,283,283,284,284,285,285,286,286,287,287,288,288,289,289,290,290,291,291,292,292,293,293,294,294,295,295,296,296,297,297,299,299,300,300,301,301,302,302,303,303,304,304,305,305,306,306,308,308,309,309,310,310,311,311,312,312,313,313,315,315,316,316,317,317,318,318,321,321,323,323,324,324,325,325,326,326,328,328,331,331,332,332,333,333,334,334,335,335,336,336,337,337,338,338,340,340,344,344,345,345,346,346,347,347,348,348,349,349,351,351,352,352,353,353,354,354,357,357,358,358,359,359,360,360,361,361,362,362,363,363,364,364,366,366,367,367,368,368,371,371,372,372,373,373,374,374,375,375,380,380,381,381,382,382,383,383,384,384,385,385,386,386,387,387,388,388,389,389,390,390,392,392,393,393,394,394,396,396,397,397,398,398,400,400,401,401,402,402,404,404,405,405,406,406,407,407,408,408,411,411,413,413,415,415,416,416,418,418,425,425,426,426,427,427,428,428,429,429,430,430,432,432,433,433,434,434,435,435,438,438,439,439,440,440,441,441,442,442,444,444,445,445,446,446,447,447,448,448,449,449,450,450,451,451,452,452,453,453,454,454,457,457,459,459,461,461,462,462,466,466,469,469,470,470,471,471,472,472,473,473,474,474,475,475,476,476,477,477,478,478,479,479,481,481,482,482,484,484],"right_children":[2,4,6,8,10,12,14,16,18,20,22,24,26,28,30,32,34,36,38,40,42,-1,44,46,-1,48,50,52,54,56,58,60,62,64,66,-1,68,70,72,74,76,78,-1,-1,-1,80,82,84,86,88,90,92,94,96,98,100,102,104,106,108,110,112,-1,-1,-1,114,116,118,120,122,124,126,128,130,132,134,136,138,140,142,-1,-1,-1,144,146,-1,148,150,152,154,156,158,160,162,-1,164,166,168,170,172,174,176,178,180,182,184,186,188,190,192,194,196,-1,-1,-1,-1,-1,198,200,202,204,206,208,210,212,-1,-1,-1,214,-1,-1,216,-1,-1,218,-1,220,222,-1,224,-1,226,-1,228,230,232,234,236,238,240,242,244,246,248,250,252,254,256,258,-1,260,262,264,266,-1,-1,-1,268,270,272,274,276,278,280,282,284,286,288,290,292,294,296,298,300,302,304,306,-1,-1,308,310,312,314,316,318,320,322,324,326,328,-1,-1,330,332,334,-1,-1,-1,-1,336,-1,-1,-1,338,340,-1,-1,342,344,-1,-1,-1,-1,346,348,-1,-1,350,352,354,-1,-1,356,358,360,-1,-1,-1,-1,362,364,366,368,370,372,-1,374,376,378,380,382,384,386,388,390,392,394,396,398,400,402,404,406,408,410,-1,-1,412,-1,414,416,418,420,422,424,426,428,430,432,434,436,438,-1,440,442,444,446,448,450,452,454,456,458,460,462,464,466,468,-1,470,472,474,476,478,480,482,484,-1,486,488,490,492,494,496,-1,498,500,502,504,-1,-1,506,-1,508,510,512,514,-1,516,-1,-1,518,520,522,524,526,528,530,532,-1,534,-1,-1,-1,536,538,540,542,544,546,-1,548,550,552,554,-1,-1,556,558,560,562,564,566,568,570,-1,572,574,576,-1,-1,578,580,582,584,586,-1,-1,-1,-1,588,590,592,594,596,598,600,602,604,606,608,-1,610,612,614,-1,616,618,620,-1,622,624,626,-1,628,630,632,634,636,-1,-1,638,-1,640,-1,642,644,-1,646,-1,-1,-1,-1,-1,-1,648,650,652,654,656,658,-1,660,662,664,666,-1,-1,668,670,672,674,676,-1,678,680,682,684,686,688,690,692,694,696,698,-1,-1,700,-1,702,-1,704,706,-1,-1,-1,708,-1,-1,710,712,714,716,718,720,722,724,726,728,730,-1,732,734,-1,736,-1,-1,-1,-1,-1,-1,-1,-1,-1,-1,-1,-1,-1,-1,-1,-1,-1,-1,-1,-1,-1,-1,-1,-1,-1,-1,-1,-1,-1,-1,-1,-1,-1,-1,-1,-1,-1,-1,-1,-1,-1,-1,-1,-1,-1,-1,-1,-1,-1,-1,-1,-1,-1,-1,-1,-1,-1,-1,-1,-1,-1,-1,-1,-1,-1,-1,-1,-1,-1,-1,-1,-1,-1,-1,-1,-1,-1,-1,-1,-1,-1,-1,-1,-1,-1,-1,-1,-1,-1,-1,-1,-1,-1,-1,-1,-1,-1,-1,-1,-1,-1,-1,-1,-1,-1,-1,-1,-1,-1,-1,-1,-1,-1,-1,-1,-1,-1,-1,-1,-1,-1,-1,-1,-1,-1,-1,-1,-1,-1,-1,-1,-1,-1,-1,-1,-1,-1,-1,-1,-1,-1,-1,-1,-1,-1,-1,-1,-1,-1,-1,-1,-1,-1,-1,-1,-1,-1,-1,-1,-1,-1,-1,-1,-1,-1,-1,-1,-1,-1,-1,-1,-1,-1,-1,-1,-1,-1,-1,-1,-1,-1,-1,-1,-1,-1,-1,-1,-1,-1,-1,-1,-1,-1,-1,-1,-1,-1,-1,-1,-1,-1,-1,-1,-1,-1,-1,-1,-1,-1,-1,-1,-1,-1,-1,-1,-1,-1,-1,-1,-1,-1,-1,-1,-1,-1,-1,-1,-1,-1,-1,-1,-1,-1,-1,-1,-1,-1,-1,-1,-1,-1,-1,-1,-1,-1,-1,-1,-1,-1,-1,-1,-1],"split_conditions":[3E0,1.7609143E4,1.7568E4,1E0,3.2202E4,1.2458714E4,1.3013E4,1E0,1.7332E4,1.5967E4,3.2359E4,1E0,8.711E3,1E1,2.2973857E4,2E0,2E0,7.816E3,1.4915E4,2.3858E4,2.4367E4,2.0154498E3,7E0,1E1,-1.0506721E3,1E1,1.5711E4,9E0,1.0135E4,1.372E4,1.6689E4,1.7865785E4,2.1626E4,1E0,9.578E3,9.1195294E2,8E0,1.2909E4,1.759E4,4E0,1.9107857E4,1.6812E4,1.4006122E3,2.6821506E2,1.0373989E3,1.0717E4,1.1725714E4,1.3175E4,1.1286E4,1.28E4,1.111E4,1.9156928E4,2.0893428E4,1.1E1,2E0,2.0329857E4,2.2909E4,1E0,2.2314E4,9.544857E3,1.9E1,2.9E1,1.24640724E2,5.748867E2,-4.0863693E2,1.1E1,7.163E3,2E0,9.455E3,8E0,1.8828072E4,1.8E1,1.5308E4,7E0,1.9792E4,2.4136E4,3E0,1.6712E4,2.0739572E4,9E0,-4.1060107E2,-8.367075E2,-7.138673E2,1.4376286E4,4E0,2.227793E1,2.024E3,1E1,1.4591E4,6E0,1.6694E4,1.9445E4,1E0,1.9493E4,1.5986403E3,9E0,1.2E1,2.0415143E4,1.3185E4,1.9392285E4,2.7225E4,1.4944E4,2.0893428E4,1.3819E4,1E1,7E0,2.6455857E4,9.578E3,7.584E3,1.3E1,2E0,1.5181E4,2.6969073E2,5.1727932E1,-4.125459E2,-1.7672179E2,-6.8792615E2,1.1277143E4,1.5936286E4,6E0,1.3275E4,6E0,1.799E4,1.4082E4,4E0,6.1185646E1,-2.0143257E2,-1.9443643E2,2.6552E4,2.988989E2,-1.8802794E2,2.024E3,8.432897E2,3.4307449E3,2E0,1.3547E3,2.4694E4,1E0,2.5802375E3,1E0,9.030429E2,5E0,1.3551875E2,1.271E4,8.57E3,2.024E3,1.3833929E4,1.7533E4,1.3E1,9E0,1.4795E4,1.8557E4,5E0,1.2898E4,4E0,1.1686E4,1.7637E4,1.8266E4,1.9144E4,1.336978E3,7E0,1.1E1,3.1E1,1.0824E4,-4.6035156E-1,-6.307436E2,-2.8441309E1,1.3E1,1.8191E4,1.1E1,1.1E1,1.7334357E4,2.5839E4,1.8434E4,1.5E1,1.2E1,5E0,4E0,2.6553E4,4E0,2.5306E4,2.4367E4,1.2E1,5E0,1.7378E4,1.9585E4,2.61535E4,1.3415814E2,3.2225587E0,2E0,8.486E3,3E0,2.4678E4,2.7E1,1.536E4,1.1E1,2.5177E4,6E0,1.4446E4,9.069E3,2.5931082E2,-1.7155957E2,2.1E1,1.364E4,1.2E1,-1.8388257E2,-1.7714355E1,2.4855144E2,6.0759766E1,1.4376286E4,9.7556915E2,-4.2692392E2,8.457607E1,2.5023E4,3.0621E4,3.044873E1,4.8047543E2,2.7203E4,4E0,7.7717456E2,1.1932795E3,9.7646533E2,1.7856358E2,2.5E1,2.3E1,1.0058692E1,-3.3368263E1,2.8468E4,1.2838E4,4E0,3.696542E2,-3.6291525E2,3E0,1.3E1,2.024E3,-5.9821356E2,-1.1501377E2,-2.4042325E2,-2.0530762E1,1.4317143E4,2E0,7.169E3,1.3024929E4,1E0,3E1,-8.4365204E2,9E0,1.018E4,7E0,3E0,1.2E1,9E0,2.3664E4,2.3251E4,1.1111E4,1.7645715E4,2.1E1,5E0,1.7993215E4,1.2885E4,9E0,7.169E3,1.3586E4,1.3992E4,1.1686E4,-3.1621094E1,-3.1269415E2,3.0072E4,7.9529297E2,1.8398E4,7E0,1.2E1,8E0,3E0,1.2E1,1.7517E4,3E0,1.5E1,2.5979E4,3E0,2.3E1,1.2585E4,1.1121879E3,7E0,1.2E1,1E0,1.8876428E4,1.9032572E4,2.8394E4,1.0783E4,1.6403E4,6E0,1.2E1,2.2906E4,1.9E1,1.5297E4,1.6473E4,2E0,2.0829991E2,2.6199143E4,2.3684572E4,1.4815E4,3.1321E4,1.7E1,2.9E1,2.8438E4,2E0,1.2366045E2,1.2E1,1E1,7.983E3,9.801E3,3.2889E4,5E0,3.8170407E2,3.3271E4,1.4145E4,2.2E1,1.6997143E4,1.2977358E3,4.8988766E2,2.5E1,2.0399072E2,8.879E3,2.3E1,1.4042E4,1.6037E4,1.9262408E2,1.3637571E4,1.6090156E3,-1.7844405E2,3.0298E4,9E0,6E0,2.5E1,2.4E1,3E0,1.7932E4,5E0,-1.7804662E2,9E0,2.3567363E3,5.8368164E2,5.759763E2,1.4309E4,2.6998E4,2.6E1,1.6864E4,1E0,1.2541429E4,-6.911553E1,2.7E1,1.2993571E4,1.4973143E4,1.3582429E4,2.0549004E2,5.216875E1,1.33645E4,1.2681E4,7E0,2E1,1.1046E4,1.1E1,1.1639E4,1.465E4,-9.5060646E1,1.9792E4,1.7E1,2.1027E4,-1.3528398E2,-8.948674E2,1.2903E4,5E0,1.8289E4,4E0,3E0,3.2645712E2,8.878818E2,1.3463174E2,7.9332715E2,1.0962E4,3.1E1,1.8684E4,4E0,7E0,1.9197E4,7E0,1.6811E4,1.61E4,9E0,1.7281E4,5.4194336E0,1.0717E4,1.234E4,1.9844572E4,-2.6479126E2,1E1,1.2E1,8E0,6.750069E1,1.4364E4,8E0,1.4889E4,7.935596E1,1.7584715E4,1.8557E4,2E0,1.3876E4,1.4944E4,8.645508E0,4.4079922E2,2E1,2.8678476E2,1.0338E4,-9.5333885E1,1.2639E4,2.6376643E4,5.996694E2,3E0,-4.9888947E2,-3.6815235E1,6.3713573E1,-9.0375E1,-6.067497E2,-1.2841104E2,1.6534E4,5E0,1.1469E4,1.3781E4,1.8146357E4,1.8189E4,1.1173357E3,1.7186E4,9E0,2.1E1,1.8454E4,3.0886035E2,6.771309E1,2.2424215E4,2.2326E4,1.9722572E4,1.6544E4,1.7223E4,2.4929024E2,1.5431E4,1.5E4,1.3683E4,1.4990571E4,1.9144E4,2E0,1.9836857E4,7E0,2.1319E4,2.4E1,4E0,9.310449E1,3.8732608E2,1.9E1,1.3326358E2,2.7196572E4,2.5811356E2,7E0,2.8E1,9.486269E2,2.9278418E2,3.5128184E3,1.783E4,-7.3211913E0,-1.5888077E2,4.1569E4,3E0,1.5E1,3E0,2.2E1,7E0,2.8449572E4,1E0,1.2E1,2.4246E4,2.4343E4,1.2705668E3,1.6145E4,1.5E1,3.7693927E2,2.5839E4,1.0481904E3,3.5901108E2,9.861045E1,-2.9619532E1,1.673933E2,5.5533905E2,1.883763E2,5.651899E2,6.091901E2,1.1735101E3,1.294665E3,7.8765375E2,3.916355E2,6.598653E1,1.8630468E1,1.2308633E2,-3.694922E1,6.0250782E1,4.8458722E2,7.609535E2,8.1663934E2,2.2329492E2,6.377832E1,-1.03952736E2,-3.5327518E2,-8.165064E1,-1.09322975E2,-2.8221286E2,-1.10932106E2,1.2294391E2,-9.70989E1,3.963551E1,1.4775821E2,-8.442974E1,-3.039131E1,9.2229047E2,7.392261E0,3.0061874E2,-1.7180376E2,4.979558E1,3.7205487E2,7.827907E1,6.1153845E2,3.580311E2,-2.8594044E1,3.2135144E2,4.6366146E1,4.0026437E2,4.6548733E1,1.9708301E2,5.12573E2,1.3394071E3,7.745656E2,2.8371414E2,-1.0297422E2,5.903293E2,9.369873E1,4.6011362E2,3.455918E1,1.9389873E2,-3.079131E1,-2.984725E2,3.2163574E1,1.7106358E2,-1.6027965E2,3.1051432E1,-2.043444E2,3.3152344E0,1.3734143E2,-1.2179937E2,2.2888821E2,3.815768E1,4.2063576E1,3.5178638E2,1.3152501E2,-9.130911E1,6.801E1,2.6041708E2,-1.9554375E2,-5.09665E2,-2.0409792E2,1.2971927E2,-2.746605E2,3.8551174E1,2.0167735E2,5.643688E2,-9.025563E2,-1.4767325E2,-4.4721124E2,3.996541E2,-5.642703E2,-9.1830765E1,-6.645836E2,-3.112981E2,4.554734E2,-5.060366E2,-3.6305164E2,-1.7556111E2,-4.8765216E2,-6.037829E2,2.1139896E2,-7.505371E1,-2.490802E2,1.16069435E2,-2.5601746E2,-5.0786476E1,-8.019622E1,1.0170052E2,-6.4021194E1,-5.003977E2,7.087273E1,5.672594E2,-4.8948007E2,2.5522119E2,-1.5090839E2,-3.6624496E2,2.4121947E2,-3.9353622E2,-2.5101158E2,1.912561E2,5.729212E2,1.2295078E2,-3.4241753E0,-2.5884235E2,-8.3742E1,-3.5054794E2,3.4526806E1,1.8496385E2,1.8133084E2,4.1505377E2,3.9441456E1,3.3975104E2,6.5056573E2,1.7106008E3,3.5256393E2,5.589032E2,1.0086608E3,2.785419E2,3.3156467E2,8.610743E0,6.5562585E2,-1.6458105E1,2.568292E2,7.434792E2,2.7281808E2,7.944489E2,3.8809384E2,2.1241584E3,9.773262E2,3.7337814E2,1.2423538E3,4.1752945E2,-2.3781933E1,-1.5627739E2,-4.9326343E2,-1.0591103E2,-1.3584857E2,-3.8281406E2,-6.1092506E1,2.0492036E2,-1.4177174E2,7.580869E1,1.0012988E1,1.069658E3,-1.5010655E2,1.0057617E0,-3.121231E2,-8.73692E1,5.181935E2,-1.978511E1,3.4835144E2,-3.5709114E1,9.267965E1,5.909338E2,1.5766895E2,-2.6852476E1,-4.44418E1,1.23779594E2,3.6941354E2,2.0059352E2,5.2277027E1,-8.790575E1,4.5654703E2,1.145542E2,-4.2422003E2,1.6453934E2,-6.4395557E2,-5.3968646E2,-9.457031E0,-2.5985834E2,5.291565E2,-3.6159406E2,-4.973893E2,-3.4863254E2,9.024163E2,-2.6180627E2,7.554261E2,-4.320565E1,-8.530539E1,-3.2774667E2,3.1052072E2,-2.3184639E2,-2.7784836E1,-1.9483116E2,9.265805E2,5.024721E0,8.01648E1,-3.961147E2,1.0671114E2,2.8432504E2,-5.247282E2,-1.9551749E2,-2.2970763E2,-8.0958725E1,-1.6669263E2,5.433379E1,6.638361E2,1.5698653E2,1.6039885E1,3.8303183E2,5.497633E2,1.4252608E2,8.264467E2,1.6541084E3,-1.23019714E2,2.2024353E2,8.9503046E2,2.4592928E2,3.1743542E2,5.449099E2,3.102286E2,1.0968539E3,1.7401172E2,3.938379E1,9.664385E1,7.0085455E2,-2.5419112E2,-5.748584E1,-2.4538623E2,3.6373242E2,4.251793E2,7.7945844E2,5.641286E2,2.0525145E2,-3.298251E1,2.5270657E2,1.6828251E3,7.0419006E2,-4.531344E1,2.3177412E2,9.514595E2,1.6412313E3],"split_indices":[0,12,12,1,8,12,10,2,8,10,11,2,10,0,12,0,4,10,10,8,13,0,4,0,0,0,12,0,11,8,10,13,11,0,11,0,4,12,8,6,12,8,0,0,0,10,12,8,11,10,8,13,12,0,6,12,8,6,11,13,3,3,0,0,0,3,10,0,8,3,13,3,10,4,8,8,6,8,12,3,0,0,0,12,3,0,5,0,11,0,11,11,6,8,0,4,0,13,11,12,11,11,12,10,0,0,12,11,8,3,4,11,0,0,0,0,0,12,12,3,11,3,8,10,3,0,0,0,11,0,0,5,0,0,4,0,8,1,0,1,0,3,0,8,10,5,13,8,0,0,11,8,0,10,3,10,8,12,12,0,3,4,3,10,0,0,0,0,12,3,0,13,11,10,3,0,0,0,10,4,8,13,0,0,8,8,13,0,0,4,8,6,11,3,10,4,8,3,11,10,0,0,3,8,3,0,0,0,0,12,0,0,0,11,11,0,0,8,3,0,0,0,0,3,3,0,0,11,8,4,0,0,3,3,5,0,0,0,0,12,4,11,13,6,3,0,0,8,3,4,4,3,8,10,10,12,3,0,13,8,3,11,11,11,10,0,0,8,0,8,3,0,4,3,0,11,4,3,11,3,3,8,0,0,4,6,12,12,8,11,11,3,0,11,3,8,8,3,0,12,13,8,8,3,3,10,6,0,3,3,10,11,10,4,0,10,8,3,12,0,0,3,0,8,3,11,10,0,12,0,0,10,4,6,3,3,4,8,3,0,3,0,0,0,11,8,3,8,0,12,0,3,12,12,13,0,0,13,11,3,3,10,4,10,11,0,8,3,8,0,0,11,4,11,4,3,0,0,0,0,8,3,10,0,0,13,4,11,8,3,11,0,10,11,12,0,3,4,3,0,8,3,8,0,13,8,3,11,11,0,0,3,0,10,0,8,13,0,3,0,0,0,0,0,0,11,3,8,10,13,10,0,10,0,3,11,0,0,13,8,12,8,8,0,8,11,10,13,12,6,13,0,12,3,3,0,0,3,0,13,0,4,3,0,0,0,8,0,0,8,3,3,3,3,4,12,6,3,11,8,0,8,3,0,11,0,0,0,0,0,0,0,0,0,0,0,0,0,0,0,0,0,0,0,0,0,0,0,0,0,0,0,0,0,0,0,0,0,0,0,0,0,0,0,0,0,0,0,0,0,0,0,0,0,0,0,0,0,0,0,0,0,0,0,0,0,0,0,0,0,0,0,0,0,0,0,0,0,0,0,0,0,0,0,0,0,0,0,0,0,0,0,0,0,0,0,0,0,0,0,0,0,0,0,0,0,0,0,0,0,0,0,0,0,0,0,0,0,0,0,0,0,0,0,0,0,0,0,0,0,0,0,0,0,0,0,0,0,0,0,0,0,0,0,0,0,0,0,0,0,0,0,0,0,0,0,0,0,0,0,0,0,0,0,0,0,0,0,0,0,0,0,0,0,0,0,0,0,0,0,0,0,0,0,0,0,0,0,0,0,0,0,0,0,0,0,0,0,0,0,0,0,0,0,0,0,0,0,0,0,0,0,0,0,0,0,0,0,0,0,0,0,0,0,0,0,0,0,0,0,0,0,0,0,0,0,0,0,0,0,0,0,0,0,0,0,0,0,0,0,0,0,0,0,0,0,0],"split_type":[0,0,0,0,0,0,0,0,0,0,0,0,0,0,0,0,0,0,0,0,0,0,0,0,0,0,0,0,0,0,0,0,0,0,0,0,0,0,0,0,0,0,0,0,0,0,0,0,0,0,0,0,0,0,0,0,0,0,0,0,0,0,0,0,0,0,0,0,0,0,0,0,0,0,0,0,0,0,0,0,0,0,0,0,0,0,0,0,0,0,0,0,0,0,0,0,0,0,0,0,0,0,0,0,0,0,0,0,0,0,0,0,0,0,0,0,0,0,0,0,0,0,0,0,0,0,0,0,0,0,0,0,0,0,0,0,0,0,0,0,0,0,0,0,0,0,0,0,0,0,0,0,0,0,0,0,0,0,0,0,0,0,0,0,0,0,0,0,0,0,0,0,0,0,0,0,0,0,0,0,0,0,0,0,0,0,0,0,0,0,0,0,0,0,0,0,0,0,0,0,0,0,0,0,0,0,0,0,0,0,0,0,0,0,0,0,0,0,0,0,0,0,0,0,0,0,0,0,0,0,0,0,0,0,0,0,0,0,0,0,0,0,0,0,0,0,0,0,0,0,0,0,0,0,0,0,0,0,0,0,0,0,0,0,0,0,0,0,0,0,0,0,0,0,0,0,0,0,0,0,0,0,0,0,0,0,0,0,0,0,0,0,0,0,0,0,0,0,0,0,0,0,0,0,0,0,0,0,0,0,0,0,0,0,0,0,0,0,0,0,0,0,0,0,0,0,0,0,0,0,0,0,0,0,0,0,0,0,0,0,0,0,0,0,0,0,0,0,0,0,0,0,0,0,0,0,0,0,0,0,0,0,0,0,0,0,0,0,0,0,0,0,0,0,0,0,0,0,0,0,0,0,0,0,0,0,0,0,0,0,0,0,0,0,0,0,0,0,0,0,0,0,0,0,0,0,0,0,0,0,0,0,0,0,0,0,0,0,0,0,0,0,0,0,0,0,0,0,0,0,0,0,0,0,0,0,0,0,0,0,0,0,0,0,0,0,0,0,0,0,0,0,0,0,0,0,0,0,0,0,0,0,0,0,0,0,0,0,0,0,0,0,0,0,0,0,0,0,0,0,0,0,0,0,0,0,0,0,0,0,0,0,0,0,0,0,0,0,0,0,0,0,0,0,0,0,0,0,0,0,0,0,0,0,0,0,0,0,0,0,0,0,0,0,0,0,0,0,0,0,0,0,0,0,0,0,0,0,0,0,0,0,0,0,0,0,0,0,0,0,0,0,0,0,0,0,0,0,0,0,0,0,0,0,0,0,0,0,0,0,0,0,0,0,0,0,0,0,0,0,0,0,0,0,0,0,0,0,0,0,0,0,0,0,0,0,0,0,0,0,0,0,0,0,0,0,0,0,0,0,0,0,0,0,0,0,0,0,0,0,0,0,0,0,0,0,0,0,0,0,0,0,0,0,0,0,0,0,0,0,0,0,0,0,0,0,0,0,0,0,0,0,0,0,0,0,0,0,0,0,0,0,0,0,0,0,0,0,0,0,0,0,0,0,0,0,0,0,0,0,0,0,0,0,0,0,0,0,0,0,0,0,0,0,0,0,0,0,0,0,0,0,0,0,0,0,0,0,0,0,0,0,0,0,0,0,0,0,0,0,0,0,0,0,0,0,0,0,0,0,0,0,0,0,0,0,0],"sum_hessian":[6.439E3,1.225E3,5.214E3,7.79E2,4.46E2,2.02E3,3.194E3,4.56E2,3.23E2,3.81E2,6.5E1,4.02E2,1.618E3,7.65E2,2.429E3,4.27E2,2.9E1,2.1E2,1.13E2,2.42E2,1.39E2,5.8E1,7E0,2.86E2,1.16E2,9.1E1,1.527E3,5.54E2,2.11E2,1.929E3,5E2,3.99E2,2.8E1,3E0,2.6E1,1E0,2.09E2,9.1E1,2.2E1,1.4E1,2.28E2,1.24E2,1.5E1,1E0,6E0,6E0,2.8E2,7.9E1,1.2E1,8.21E2,7.06E2,3.07E2,2.47E2,6.4E1,1.47E2,3.75E2,1.554E3,9.5E1,4.05E2,2.44E2,1.55E2,2.7E1,1E0,1E0,2E0,2E0,2.4E1,1.46E2,6.3E1,8E0,8.3E1,4E0,1.8E1,3E0,1.1E1,3.5E1,1.93E2,1.3E1,1.11E2,3E0,3E0,1.16E2,1.64E2,4.1E1,3.8E1,1E0,1.1E1,2.57E2,5.64E2,9.3E1,6.13E2,1.89E2,1.18E2,2.28E2,1.9E1,5E0,5.9E1,1.15E2,3.2E1,2.97E2,7.8E1,9.64E2,5.9E2,4.1E1,5.4E1,2.67E2,1.38E2,3E0,2.41E2,1E2,5.5E1,2.6E1,1E0,1E0,1E0,1E0,2.3E1,1.3E2,1.6E1,5E0,5.8E1,4E0,4E0,8.1E1,2E0,1E0,3E0,1E0,1.7E1,2E0,1E0,4E0,7E0,1E0,3.4E1,9.5E1,9.8E1,1.2E1,1E0,8.5E1,2.6E1,2E0,1E0,2.1E1,2E1,4E0,3.4E1,9E0,2E0,1.32E2,1.25E2,1.98E2,3.66E2,2.5E1,6.8E1,2.59E2,3.54E2,9E1,9.9E1,9E0,1.09E2,1.02E2,1.26E2,4E0,1E0,5.8E1,1E0,7.3E1,4.2E1,1E1,2.2E1,2.07E2,9E1,7E1,8E0,4.93E2,4.71E2,3.74E2,2.16E2,7E0,3.4E1,5.1E1,3E0,1.47E2,1.2E2,8.7E1,5.1E1,2E0,1E0,8E0,2.33E2,6E1,4E1,7E0,4.8E1,2E1,6E0,2.3E1,1.07E2,1.1E1,5E0,2E0,3E0,1.1E1,4.7E1,3E0,1E0,2E0,2E0,7.8E1,3E0,1E0,1E0,1.3E1,4E0,1E0,3E0,4E0,3E1,8E0,9E1,1.1E1,1E0,6.9E1,1.6E1,1E0,1E0,1.4E1,7E0,1.9E1,1E0,2E0,2E0,1.8E1,1.6E1,8E0,1E0,1E0,1E0,8.4E1,4.8E1,4.8E1,7.7E1,1.28E2,7E1,8.3E1,2.83E2,2.3E1,2E0,8E0,6E1,8E0,2.51E2,3.19E2,3.5E1,6E0,8.4E1,9E0,9E1,1.8E1,9.1E1,9.1E1,1.1E1,1.23E2,3E0,1E0,3E0,7.2E1,1E0,1E1,3.2E1,4E0,6E0,3E0,1.9E1,1.1E1,1.96E2,8.3E1,7E0,5.6E1,1.4E1,6E0,2E0,4.74E2,1.9E1,1.55E2,3.16E2,2.02E2,1.72E2,1.91E2,2.5E1,2E0,5E0,1.8E1,1.6E1,9E0,4.2E1,2E0,1E0,5.9E1,8.8E1,1.1E1,1.09E2,5.9E1,2.8E1,2.9E1,2.2E1,1E0,7E0,2E0,2.31E2,3.1E1,2.9E1,3.5E1,5E0,4E0,3E0,2E0,4.6E1,1.8E1,2E0,5E0,1E0,3E0,2E1,5.6E1,5.1E1,5E0,6E0,2E0,1E0,8E0,3E0,1.6E1,3.1E1,3.1E1,4.7E1,7E0,6E0,2E0,2E0,3E0,1E0,3E0,2.7E1,5.1E1,1.8E1,1.3E1,3E0,1.1E1,3E0,2E0,5E0,7E0,1.2E1,1E0,1E0,7E0,1.1E1,7E0,9E0,4.1E1,4.3E1,6E0,4.2E1,1E0,4.7E1,4E0,7.3E1,1E0,1.27E2,6.6E1,4E0,9E1,1.93E2,2.2E1,1E0,1E0,1E0,1E0,7E0,5.6E1,4E0,3E0,5E0,2.33E2,1.8E1,2.38E2,8.1E1,2E0,3.3E1,1E0,5E0,5.3E1,3.1E1,3E0,6E0,2.9E1,6.1E1,1E0,1.7E1,5E0,8.6E1,1E0,9E1,8E0,3E0,9.2E1,3.1E1,1E0,2E0,7E1,2E0,9E0,1E0,6E0,2.6E1,1E0,3E0,5E0,1E0,1E0,2E0,1.8E1,1E0,5E0,6E0,4.4E1,1.52E2,3.8E1,4.5E1,1E0,6E0,3E0,5.3E1,1.1E1,3E0,2E0,4E0,1.04E2,3.7E2,1.6E1,3E0,2E0,1.53E2,1.93E2,1.23E2,5.6E1,1.46E2,1.07E2,6.5E1,2E1,1.71E2,2.2E1,3E0,1E0,1E0,4E0,1E0,1.6E1,2E0,9E0,7E0,6E0,3E0,2E0,4E1,1E0,1E0,2.9E1,3E1,7.9E1,9E0,3E0,8E0,8.5E1,2.4E1,3.6E1,2.3E1,2.7E1,1E0,2.2E1,7E0,2E0,2E1,5E0,2E0,1E0,1E0,4E0,2.27E2,4E0,2.7E1,2.2E1,7E0,1.6E1,1.9E1,3E0,1E0,1E0,2E0,1E0,1E0,1.9E1,2.7E1,4E0,1E0,2E0,1E0,1.4E1,6E0,4.5E1,1.1E1,3.8E1,1.3E1,2E0,4E0,5E0,3E0,1E0,2E0,7E0,9E0,2.4E1,7E0,2.1E1,1E1,1E1,3.7E1,5E0,2E0,2E0,4E0,1E0,1E0,2E0,2.5E1,4.9E1,2E0,1E0,1.7E1,1E0,1.2E1,2E0,1E0,1E0,1E1,1E0,1E0,3E0,2E0,5E0,2E0,9E0,3E0,2E0,5E0,1E0,1E1,2E0,5E0,4E0,5E0,4E0,3.7E1,3.9E1,4E0,4E0,2E0,3.7E1,5E0,4.6E1,1E0,3E0,1E0,7.2E1,1E0,5.9E1,7E0,2E0,2E0,8.1E1,9E0,6.5E1,1.28E2,2E0,2E1,6E0,1E0,5.3E1,3E0,2E0,2E0,1E0,2E0,2E0,3E0,2.32E2,1E0,1.2E1,6E0,2E0,2.36E2,7.8E1,3E0,1E0,1E0,8E0,2.5E1,1E0,4E0,2E1,3.3E1,8E0,2.3E1,3E0,3E0,2.8E1,1E0,1.7E1,4.4E1,1.6E1,1E0,2E0,3E0,8.5E1,1E0,2E0,8.8E1,2E0,6E0,1E0,2E0,8.9E1,3E0,2.9E1,2E0,4.8E1,2.2E1,8E0,1E0,2E0,4E0,2.3E1,3E0,2E0,1E0,3E0,2E0,1E0,5E0,1.5E1,2.9E1,1E0,1.51E2,2E0,3.6E1,4.1E1,4E0,4E0,2E0,2E0,1E0,3.4E1,1.9E1,7E0,4E0,3E0,1E0,1E2,4E0,1.4E2,2.3E2,2E0,1.4E1,2E0,1E0,4.6E1,1.07E2,1E0,1.92E2,5E0,1.18E2,4E0,5.2E1,3E0,1.43E2,2.7E1,8E1,3E0,6.2E1,1.2E1,8E0,4E1,1.31E2,1.9E1,3E0,1E0,2E0,3E0,1E0,1.5E1,1E0,4E0,5E0,6E0,1E0,1E1,3E1,2.3E1,6E0,3E0,2.7E1,3.3E1,4.6E1,1E0,8E0,2E0,1E0,1E0,7E0,6.8E1,1.7E1,1E0,2.3E1,2.7E1,9E0,4E0,1.9E1,2.1E1,6E0,2E0,2E1,4E0,3E0,1.4E1,6E0],"tree_param":{"num_deleted":"0","num_feature":"15","num_nodes":"737","size_leaf_vector":"1"}},{"base_weights":[6.7124855E1,-3.706495E3,1.4970538E3,-3.2488167E3,-8.70329E3,2.9872354E2,4.2520645E3,2.9285771E3,-4.1553354E3,-9.614133E3,-6.906435E3,3.698263E3,-8.0997455E2,1.7809739E3,9.503293E3,5.613107E3,1.1005984E2,-2.130538E3,-5.1239756E3,-7.1090906E2,-9.959337E2,-1.8209293E3,-7.2844165E3,1.5211423E3,8.364885E3,-1.6423344E3,4.538312E3,6.3931333E3,1.7846773E2,7.548642E3,1.2043715E4,5.104847E3,1.2072093E4,-4.1980635E3,4.1722505E3,-4.1679966E3,4.621352E2,-5.670831E3,-3.0021501E3,-5.0068735E2,5.461424E2,-5.7268896E3,-8.0799536E2,-1.0545275E3,5.5910596E3,8.609367E3,-1.4568488E3,-2.1515479E3,5.2328335E3,6.966915E3,4.1425342E2,1.9375677E3,9.310636E3,-1.2160741E3,2.4388152E3,8.754061E3,3.0657278E3,1.3989408E4,8.397208E3,-2.0264482E2,5.1973496E3,3.802349E2,1.46195205E4,-4.3060483E2,5.4659374E1,4.3143286E3,-1.6079092E2,-4.1097284E2,-5.60766E3,-1.0464558E3,1.2185948E3,-3.8921113E3,-6.437817E3,-5.889424E3,-2.181796E3,-6.472279E2,-2.9089343E3,9.439894E2,-2.769614E3,5.103127E3,1.26301E4,7.159011E3,1.0265905E4,-1.7553223E2,-2.3739531E2,-3.7828518E3,-1.1330669E3,6.0296606E3,-6.2069806E2,5.4119507E3,1.1165872E4,-3.521185E3,9.934457E2,8.7687787E2,8.314836E3,1.0105905E4,3.6758533E3,-1.4162821E3,3.0691196E3,3.4121577E3,-1.162811E2,5.2978955E3,9.655427E3,1.5580474E3,5.5043354E3,1.1467716E4,1.821758E3,3.8920457E3,9.999287E3,4.0423882E3,5.977454E3,1.7302559E3,1.9436845E2,5.156561E3,2.580106E3,-1.5303707E3,1.8915885E3,-5.800092E3,1.1419029E2,-2.8466907E3,8.375053E2,2.1257764E3,-1.0689746E3,-6.316708E2,-4.9878896E3,-7.169818E3,-4.7636694E3,-3.1089663E3,-7.5878394E2,-5.6132124E3,-1.6021469E3,-3.2441708E2,-6.16376E1,-7.71424E1,2.801995E3,-4.17032E3,3.1524626E3,5.379307E3,-4.6772174E2,1.7125713E3,6.3301865E3,8.0354033E3,6.0314856E2,1.5784131E2,1.0540145E4,-9.620742E1,4.0733984E2,2.2274683E3,-4.517383E3,-1.6686205E3,3.5417407E3,6.468539E3,9.189678E2,3.741994E3,1.0197415E4,8.53251E3,1.6104866E4,-5.065354E3,-1.7573479E3,1.01411786E3,7.251755E2,3.525827E3,-7.5816284E2,1.0989598E4,-1.1194668E3,1.089143E4,5.7546313E3,-6.1215265E2,1.0184381E4,-8.558219E2,-2.0961294E3,4.5883535E3,-4.077941E2,3.0212952E3,1.0419158E4,-1.7272843E3,4.480892E3,5.589737E3,-5.5384503E2,1.052475E4,7.1441343E3,2.8254578E3,-2.0197654E3,9.88282E3,2.0496663E3,1.1630345E4,-7.712949E1,4.148658E3,-4.9179493E1,1.0679112E4,3.1207441E3,4.2199863E3,-1.7083633E2,7.929466E2,5.1575093E3,5.3876855E3,-1.23526955E2,1.9055298E3,5.5426697E2,-2.7720083E3,7.6200555E2,4.9508896E3,3.4064752E2,2.760104E2,-5.976279E3,-5.9746975E1,7.9730273E2,-4.3042313E2,-4.8587886E3,1.2385677E3,1.1223716E2,2.4407878E3,-1.6838223E3,-2.7335557E3,-3.1740512E2,-1.4544977E3,8.54576E3,-5.6015366E3,-3.2859363E3,-7.2896914E3,-3.894775E3,-3.6667195E3,-5.5298696E3,2.2970703E2,-3.5406572E3,-1.4795801E3,-6.1880186E3,1.6814633E3,-2.0301772E3,-8.347239E2,7.438568E2,1.3672457E3,4.1366733E3,-5.254566E3,-2.738343E3,6.0273047E3,-4.637373E3,2.3927898E3,5.5805884E3,7.437335E2,-1.5635157E1,8.296571E3,1.7339811E3,-3.371846E3,8.452613E3,-1.8430762E2,1.4391725E2,1.5224728E4,9.919439E3,6.0833983E0,5.501758E1,1.1063789E3,7.235981E3,-3.7522417E3,-5.2491797E3,-6.005319E2,-2.7454543E3,5.0504014E3,8.4098846E2,5.3633594E3,8.406298E3,2.609393E3,-2.5241895E2,1.6595968E3,4.9625977E3,1.9788533E4,8.848474E3,7.040234E3,1.2558707E4,3.2786306E3,1.1970543E4,-2.2625977E2,-6.2944885E2,-2.9447546E2,-2.1847148E2,-1.2471617E3,1.8008804E3,2.6491191E3,9.219678E2,-2.5175378E3,-1.3890883E2,1.2957526E3,1.4226166E3,-1.6230768E2,1.9568165E1,1.299123E3,1.1058584E4,2.678066E3,7.3213784E3,-2.7355405E2,2.984178E2,-6.955176E0,1.1659165E3,2.66605E3,-1.0423383E3,-2.4458557E3,-2.929229E2,5.0169003E2,-4.9137695E1,1.197832E2,-1.289611E3,2.010475E3,3.9097043E3,2.6237872E2,1.0993779E3,-2.5073352E3,6.240138E2,5.3298604E3,8.680156E2,-2.8654947E2,5.890715E3,-1.3911524E1,-6.916524E1,2.3382625E3,1.0872445E4,4.1785425E3,7.687084E3,-2.178899E3,3.7905154E3,1.0489551E1,-2.267494E3,4.9611334E2,1.1516809E3,2.0874121E2,1.2070385E3,1.1883238E4,3.8545532E3,4.952273E2,2.0635647E3,9.748545E1,1.0873099E4,4.4540796E2,-1.7729668E2,4.550024E3,8.677043E2,1.2426177E3,5.420061E3,1.6220479E2,5.7101807E3,1.8282089E2,3.8207248E2,-5.964532E2,-1.4593118E3,1.2915507E3,-1.41429E3,3.1828586E2,8.663553E2,-3.1364062E2,7.539888E2,2.76155E2,-1.657147E2,-6.9458325E3,-4.603857E3,9.938874E1,1.0377441E1,1.3175752E3,-1.7857795E3,-7.509593E2,-6.2722305E3,1.5461294E3,-3.3327728E2,6.39579E2,2.7365818E3,-4.561118E2,3.5462566E1,-4.591577E2,-3.440671E3,1.8796445E3,-7.618986E2,-2.381399E3,2.469598E3,1.4497753E3,-2.5482031E2,-6.9469326E3,-5.083939E3,-3.5544895E3,-2.6548007E2,-7.3118535E3,2.2242872E1,-5.746162E2,9.5723206E2,-3.9964375E3,5.0291324E2,-6.2259927E3,-4.6681323E3,8.7424416E1,-5.296836E1,-2.2807654E3,-4.515453E3,-1.9277455E2,-6.7541995E0,-8.9274124E1,-6.4326044E2,1.3482896E2,8.338603E3,-2.9877417E3,-1.3559747E2,4.227021E2,-1.4934773E3,-1.6864458E3,1.4102535E3,2.9917275E3,-7.3728937E2,8.266264E3,3.1039807E3,-5.875063E3,-4.2534683E3,3.1524468E3,-3.866713E3,6.880556E3,-3.857173E2,-5.2402014E2,-1.4840404E2,9.635044E2,3.6844316E3,5.3763745E3,7.4821313E3,7.8467456E3,1.1795231E4,3.2778875E3,-2.9927756E2,-5.3625977E1,-4.471961E3,2.1673965E2,9.276177E2,1.7845242E4,6.1775146E2,7.5614463E3,1.1788073E4,-5.918441E2,2.02525E3,-1.2504557E3,8.637775E3,-3.8857668E3,1.486421E3,-5.2794507E3,-6.8757164E1,-1.6011908E3,1.4040674E3,-3.102965E3,-1.2279758E3,5.647797E3,3.0385294E2,-1.0520614E3,2.4732327E3,6.1222827E3,4.147628E3,6.7306514E3,1.6301762E4,1.3817871E1,3.192652E2,-1.6329088E2,4.7989584E2,6.77464E2,9.18474E3,6.744658E3,3.74348E3,5.0243918E2,2.3035117E3,4.501093E3,1.0581277E4,3.3040372E2,7.487955E3,3.5751523E2,1.3234758E3,4.324542E2,1.4158832E3,-9.1023766E1,5.4611847E1,-1.7423356E3,5.110645E2,9.4777216E2,9.221586E3,1.7319535E3,4.310255E3,-3.2418567E3,1.2189166E3,1.1472532E3,-5.364935E2,-1.3431836E1,2.2682433E2,2.2130254E2,-2.6434082E1,9.988321E3,1.3254876E4,-1.3494525E3,4.0215646E2,2.2320422E3,7.983598E2,1.7776445E2,-5.894858E2,-1.9669815E2,4.4289473E3,-1.5676184E3,-9.0370804E1,-1.7672429E3,-2.9597393E3,1.57279E2,-2.270011E3,-4.700814E1,-1.6792702E2,2.3266326E3,-1.5209683E3,1.3439708E4,3.5746558E3,-5.3236676E2,-2.0819763E3,3.8920552E3,-9.1818805E2,2.7000635E2,6.2797617E3,2.1887646E2,-2.2074902E2,1.7158379E2,-2.1456621E2,7.1931763E3,4.6152793E3,-4.598242E1,2.9898445E3,1.3488491E3,1.11245E4,4.907357E2,2.040685E3,2.709287E1,7.8912334E3,-3.8378418E1,-2.5317314E2,-9.782549E1,4.051744E3,-3.8203777E1,-2.751619E3,-7.7388257E2,1.739191E3,1.0614146E4,1.440136E4,2.0394728E1,5.0034396E2,2.2434277E2,3.3868954E2,1.2415362E4,8.696398E3,9.544141E1,4.8309497E2,-6.492959E1,1.4092784E2,-2.0019531E1,1.7902872E2,5.549307E2,1.8973438E1,3.5061807E2,6.352264E2,8.1783646E1,-1.5714941E2,1.2874278E2,-1.6347104E2,-3.8737304E0,1.9605684E2,-1.7068893E2,-2.682461E1,1.2112323E2,-2.0995573E1,-7.029815E2,6.842246E1,-5.2773694E2,-3.2848416E2,-5.879547E1,3.3700937E2,-2.2848412E2,1.3528877E2,-5.5573244E0,-8.789219E1,-6.714284E2,-2.4132735E2,2.3267542E2,-1.9591222E2,-7.436065E0,-1.7387285E2,-5.934457E1,2.9777124E2,1.7178502E2,3.7369153E2,-7.027325E1,5.802432E1,2.8584898E1,-1.347089E2,-3.897966E2,1.088457E1,2.4010698E2,-1.0302833E1,5.005442E1,-1.3111717E2,-4.8793365E2,-1.3251994E2,-7.291477E1,8.2496893E2,1.3793848E2,-1.7616153E2,-7.1889764E2,-3.45538E2,-4.119969E2,-5.921911E2,-3.6978326E2,-3.628594E1,1.5392676E2,-1.1014839E2,-6.027257E2,-7.552419E2,1.9228087E2,-3.2742188E1,-2.5914395E2,-5.1733405E2,-6.402902E2,-1.3790892E2,2.1641905E2,-4.8680548E2,-2.83809E2,-1.2672878E2,-4.7807828E2,-1.3290742E2,9.8309654E1,-3.3031845E2,1.1372352E3,1.13555176E2,-5.524993E2,-1.8469957E2,-2.594948E2,1.2357305E2,1.7589641E2,-3.293391E1,-1.9449487E2,-9.590349E1,3.0464705E1,-4.1366867E2,3.2892157E2,7.369244E1,3.586556E2,-7.813802E1,1.1025085E2,-2.0249767E2,1.0620087E3,-5.745117E1,3.257593E2,-2.1455175E1,-5.973348E2,-6.2783985E1,-2.1468404E2,-4.6152936E2,-7.123883E1,5.462694E2,-4.452307E2,1.3019019E1,7.824497E2,4.132604E2,5.595234E2,-4.2444455E2,1.2308685E2,1.0760807E1,5.0028125E2,2.5898634E1,4.5991724E2,6.1640924E2,1.0643649E3,3.3853485E2,7.503051E2,1.1537512E3,1.9825479E3,7.8079004E2,8.728369E1,3.660941E2,-6.5063934E1,8.6870705E1,-8.3686035E1,-4.8217413E2,2.075835E3,6.0706146E2,8.213282E0,7.7222546E2,1.022549E3,1.5169088E3,1.0185024E2,-1.9298666E2,1.2076029E3,1.522368E2,-3.080166E1,-1.5676671E2,1.0224959E3,4.0532898E2,-4.1699057E2,-1.412332E2,9.38006E2,-2.1089127E2,-5.7293207E2,-4.812065E2,-2.5277373E2,2.4246016E2,3.2820465E1,-2.591163E2,1.5967047E3,1.23631996E2,-3.513106E2,-2.214136E2,7.759943E1,-1.5195804E2,-6.573815E1,5.840083E2,2.163828E2,-1.9888875E2,-1.710185E2,2.337041E2,2.6926315E2,-1.3961699E2,4.8798697E2,8.1738916E2,1.0320385E2,4.632491E2,5.0546298E2,9.242786E2,2.852889E3,5.7051337E2,8.119188E1,-5.9010937E1,-1.2089931E2,2.8261267E2,1.00771936E3,2.807462E2,4.913521E2,1.070831E3,4.5964868E2,2.7277133E2,5.755911E2,1.5931653E2,1.1323944E3,1.3604082E2,3.4473727E2,7.865102E2,-3.3984067E2,-6.585386E1,6.3326776E2,1.6157537E1,1.3258656E3,2.8791196E2,2.2859941E2,-1.1942183E2,5.2787683E2,2.7847852E2,-9.703906E1,-3.599111E2,1.520382E2,3.0799316E1,-4.403703E1,2.2790637E2,4.8568783E1,-1.5890305E2,2.621079E2,1.025518E3,1.3747986E3,-1.0157549E2,3.4970314E1,-2.3738818E2,2.7756808E2,5.723828E1,8.828724E1,-1.3550035E2,5.0229443E2,-1.6151367E1,-9.817817E1,-2.0856865E2,1.9767782E1,-2.126479E2,-2.6614185E2,2.1457634E1,-4.18004E2,-2.676216E2,-7.321883E1,9.176653E1,-3.0270938E2,-1.1346963E2,-1.4099724E2,2.5842352E2,-1.9729033E2,8.212881E1,1.6024537E3,4.1350244E2,1.7809956E2,4.3901474E2,-2.1859346E2,9.342207E1,5.8172268E1,4.5742075E2,8.614156E1,-2.0581639E2,7.498112E2,2.2731206E2,7.61297E2,2.5565508E2,1.6224449E2,5.159958E2,3.3032178E2,8.681758E1,2.8922372E2,-1.6406572E2,1.4992972E3,1.0184217E3,5.574287E1,2.3492943E2,8.286917E2,3.8597485E2,3.8841473E1,4.3986557E2,-3.3129166E2,-8.989167E1,1.9574678E2,-1.4437138E2,-2.390537E1,2.2935156E2,1.1787549E3,7.5472894E2,2.5145743E2,1.482737E3,4.781927E1,-2.6860352E1,2.548043E2,1.2733593E3,1.2203184E2,8.994292E2],"categories":[],"categories_nodes":[],"categories_segments":[],"categories_sizes":[],"default_left":[1,0,0,0,1,0,0,0,0,0,0,0,0,0,0,0,0,0,0,0,0,0,0,0,0,0,0,0,0,0,0,0,0,0,0,0,0,0,0,0,0,0,0,0,0,0,0,0,0,0,0,0,0,0,0,0,0,0,0,0,0,0,0,0,0,0,0,0,0,0,0,0,0,0,0,0,0,0,0,0,0,0,0,0,0,0,0,0,0,0,0,0,0,0,0,0,0,0,0,0,0,0,0,0,0,0,0,0,0,1,0,0,0,0,0,0,0,0,0,0,0,0,0,0,0,0,0,0,0,0,0,0,0,0,0,0,0,1,0,0,0,0,0,0,0,0,0,0,0,0,0,0,0,0,0,0,0,0,0,0,0,0,0,0,0,0,0,0,0,0,0,0,0,0,0,0,0,0,0,0,0,0,0,0,0,0,0,0,0,0,0,0,0,0,0,0,0,0,0,0,0,0,0,0,0,0,0,0,0,0,0,0,0,0,0,0,0,0,0,0,0,0,0,0,0,0,0,0,0,0,0,0,0,0,0,0,0,0,0,0,0,0,0,0,0,0,0,0,0,0,0,0,0,0,0,0,0,0,0,0,0,0,0,0,0,0,0,0,0,0,0,0,0,0,0,0,0,0,0,0,0,0,0,0,0,0,0,0,0,0,0,0,0,0,0,0,0,0,0,0,0,0,0,0,0,0,0,0,0,0,0,0,0,0,0,0,0,0,0,0,0,0,0,0,0,0,0,0,0,0,0,0,0,0,0,0,0,0,0,0,0,0,0,0,0,0,0,0,0,0,0,0,0,0,0,0,0,0,0,0,0,0,0,0,0,0,0,0,0,0,0,0,0,0,0,0,0,0,0,0,0,0,0,0,0,0,0,0,0,0,0,0,0,0,0,0,0,0,0,0,0,0,0,0,0,0,0,0,1,0,0,0,0,0,0,0,0,0,0,0,0,0,0,0,0,0,0,0,0,0,0,0,0,0,0,0,0,0,0,0,0,0,0,0,0,0,0,0,0,0,0,0,0,0,0,0,0,0,0,0,0,0,0,0,0,0,0,0,0,0,0,0,0,0,0,0,0,0,0,0,0,0,0,0,0,0,0,0,0,0,0,0,0,0,0,0,0,0,0,0,0,0,0,0,0,0,0,0,0,0,0,0,0,0,0,0,0,0,0,0,0,0,0,0,0,0,0,0,0,0,0,0,0,0,0,0,0,0,0,0,0,0,0,0,0,0,0,0,0,0,0,0,0,0,0,0,0,0,0,0,0,0,0,0,0,0,0,0,0,0,0,0,0,0,0,0,0,0,0,0,0,0,0,0,0,0,0,0,0,0,0,0,0,0,0,0,0,0,0,0,0,0,0,0,0,0,0,0,0,0,0,0,0,0,0,0,0,0,0,0,0,0,0,0,0,0,0,0,0,0,0,0,0,0,0,0,0,0,0,0,0,0,0,0,0,0,0,0,0,0,0,0,0,0,0,0,0,0,0,0,0,0,0,0,0,0,0,0,0,0,0,0,0,0,0,0,0,0,0,0,0,0,0,0,0,0,0,0,0,0,0,0,0,0,0,0,0,0,0,0,0,0,0,0,0,0,0,0,0,0,0,0,0,0,0,0,0,0,0,0,0,0,0,0,0,0,0,0,0,0,0,0,0,0,0,0,0,0,0,0,0,0,0,0,0,0,0,0,0,0,0,0,0,0,0,0,0,0,0,0,0,0,0,0,0,0,0,0,0,0,0,0,0,0,0,0,0,0,0,0,0,0,0,0,0,0,0,0,0,0,0,0,0,0,0,0,0,0,0,0,0,0,0,0,0,0,0,0,0,0,0,0,0,0,0,0,0,0,0,0,0,0,0,0,0],"id":2,"left_children":[1,3,5,7,9,11,13,15,17,19,21,23,25,27,29,31,33,35,37,-1,-1,39,41,43,45,47,49,51,53,55,57,59,61,63,65,67,69,71,73,-1,-1,75,-1,77,79,81,83,85,87,89,91,93,95,97,99,101,103,105,107,-1,109,-1,111,-1,-1,113,-1,115,117,119,121,123,125,127,129,-1,131,133,135,137,139,141,143,145,-1,147,149,151,-1,153,155,157,159,161,163,165,167,169,171,173,175,177,179,181,183,185,-1,187,189,191,193,-1,-1,195,197,199,201,203,205,207,209,211,213,215,217,219,221,223,-1,225,227,-1,-1,229,231,233,235,237,-1,-1,239,241,243,245,247,-1,249,251,253,255,257,259,261,263,265,267,269,271,273,-1,275,277,279,281,283,285,287,289,291,293,295,297,299,301,303,305,307,309,311,313,315,317,319,321,323,325,-1,327,-1,329,331,333,-1,-1,335,337,-1,339,-1,341,343,345,347,349,351,-1,353,355,357,-1,359,361,363,365,367,369,371,373,375,377,379,381,383,385,387,389,391,393,395,397,399,401,403,405,407,409,411,413,415,-1,-1,417,419,421,423,-1,-1,425,427,-1,-1,429,431,433,435,437,439,441,443,445,447,449,451,453,455,457,459,461,463,-1,465,-1,-1,-1,467,469,471,473,-1,475,477,-1,479,-1,-1,481,483,485,487,-1,489,-1,-1,491,493,495,497,-1,-1,-1,499,501,503,-1,-1,505,507,509,511,513,515,-1,-1,517,519,521,523,525,527,-1,529,-1,-1,531,-1,533,535,-1,537,-1,539,-1,-1,541,543,545,547,-1,549,551,-1,-1,553,555,557,-1,-1,-1,559,-1,-1,561,563,-1,-1,565,567,569,571,573,575,577,579,-1,581,583,585,587,589,591,593,-1,595,597,599,601,603,605,-1,-1,607,609,-1,611,613,-1,-1,615,617,-1,-1,-1,-1,619,621,623,625,627,629,631,633,635,637,639,641,643,645,647,649,651,653,-1,-1,655,657,659,661,663,665,667,-1,669,671,-1,-1,673,-1,675,677,679,681,683,685,687,689,691,693,695,697,699,701,703,705,707,709,711,713,715,717,-1,-1,-1,719,721,723,725,727,-1,-1,729,731,-1,733,-1,-1,-1,-1,-1,-1,735,-1,737,739,741,743,745,747,749,751,-1,-1,-1,-1,753,755,757,-1,759,-1,-1,761,-1,763,765,767,769,771,773,775,-1,-1,777,779,781,783,-1,785,787,789,-1,791,-1,-1,-1,-1,793,795,-1,797,799,801,-1,803,-1,805,-1,-1,-1,807,-1,809,811,813,815,817,-1,-1,819,-1,821,823,-1,-1,-1,-1,-1,-1,-1,-1,-1,-1,-1,-1,-1,-1,-1,-1,-1,-1,-1,-1,-1,-1,-1,-1,-1,-1,-1,-1,-1,-1,-1,-1,-1,-1,-1,-1,-1,-1,-1,-1,-1,-1,-1,-1,-1,-1,-1,-1,-1,-1,-1,-1,-1,-1,-1,-1,-1,-1,-1,-1,-1,-1,-1,-1,-1,-1,-1,-1,-1,-1,-1,-1,-1,-1,-1,-1,-1,-1,-1,-1,-1,-1,-1,-1,-1,-1,-1,-1,-1,-1,-1,-1,-1,-1,-1,-1,-1,-1,-1,-1,-1,-1,-1,-1,-1,-1,-1,-1,-1,-1,-1,-1,-1,-1,-1,-1,-1,-1,-1,-1,-1,-1,-1,-1,-1,-1,-1,-1,-1,-1,-1,-1,-1,-1,-1,-1,-1,-1,-1,-1,-1,-1,-1,-1,-1,-1,-1,-1,-1,-1,-1,-1,-1,-1,-1,-1,-1,-1,-1,-1,-1,-1,-1,-1,-1,-1,-1,-1,-1,-1,-1,-1,-1,-1,-1,-1,-1,-1,-1,-1,-1,-1,-1,-1,-1,-1,-1,-1,-1,-1,-1,-1,-1,-1,-1,-1,-1,-1,-1,-1,-1,-1,-1,-1,-1,-1,-1,-1,-1,-1,-1,-1,-1,-1,-1,-1,-1,-1,-1,-1,-1,-1,-1,-1,-1,-1,-1,-1,-1,-1,-1,-1,-1,-1,-1,-1,-1,-1,-1,-1,-1,-1,-1,-1,-1,-1,-1,-1,-1,-1,-1,-1,-1,-1,-1,-1,-1,-1,-1,-1,-1,-1,-1,-1,-1,-1,-1,-1,-1,-1,-1,-1,-1,-1,-1,-1,-1,-1,-1,-1,-1,-1,-1,-1],"loss_changes":[3.4540003E10,3.9944274E9,1.5323886E10,9.044841E9,1.7418854E8,1.2199683E10,1.8240674E10,1.5656256E9,2.7486351E9,1.1348992E7,8.861363E7,8.0744755E9,1.087405E10,7.0794506E9,2.1436211E9,2.863552E8,1.802558E9,2.4160128E9,1.0864497E9,0E0,0E0,1.4335051E8,1.4441472E7,5.708519E9,6.200586E8,7.408721E9,3.2922798E9,3.192744E9,2.2472957E9,1.3619364E9,1.2589568E9,7.649843E7,9.187744E7,2.7971136E7,5.0462464E7,1.3823606E9,2.3179523E8,1.0049536E9,4.537623E8,0E0,0E0,2.3182016E7,0E0,1.1474427E9,6.6024294E8,5.1993805E8,7.809002E6,3.265451E9,1.368297E9,1.2911206E9,2.838613E8,6.6237504E8,6.305464E8,3.82694E8,6.7685645E8,5.7813094E8,1.973158E8,1.1238543E9,4.6631578E8,0E0,6.503501E7,0E0,1.3641805E8,0E0,0E0,6.2647744E7,0E0,1.8847357E8,2.0435917E8,2.3301104E8,2.8242995E8,8.185751E8,6.1044736E8,1.7947149E8,2.993044E8,0E0,2.611668E6,2.942928E8,1.5062627E9,5.62687E8,2.5977677E8,7.7079654E8,3.1157555E8,2.2257048E6,0E0,3.347625E9,3.0427889E9,3.013422E8,0E0,1.1845437E9,5.779236E8,3.4677024E7,2.5768482E8,3.7515114E8,3.6558566E8,3.8166835E8,5.644065E8,1.5899955E8,1.07516E8,5.0805914E8,5.706003E8,7.823821E7,2.7192627E8,1.6895082E8,2.973941E8,1.7019494E8,0E0,2.4539232E7,2.0515942E8,5.112608E7,5.033459E7,0E0,0E0,5.688365E7,2.7409312E7,1.4158102E8,1.1218857E8,1.9327488E8,3.8793708E6,1.6807053E8,2.833776E8,1.2051629E8,4.792323E7,4.579645E8,1.6123034E8,1.1451187E8,1.1672218E8,2.6756256E7,0E0,4.3117184E7,1.9174864E8,0E0,0E0,6.3440264E7,9.966525E7,2.1229312E8,8.1175994E8,1.0326579E8,0E0,0E0,5.143376E7,1.8145587E8,5.5892774E8,1.2907856E7,1.68832E8,0E0,1.1501106E5,4.5803843E8,3.5769446E8,1.2508687E9,5.0506752E8,2.2475264E8,2.4420364E7,2.8406886E8,3.2947814E8,1.3989555E8,8.489262E8,1.3317808E7,1.5802104E7,0E0,2.2714118E8,1.4030682E8,5.8483296E7,1.8866483E8,2.9668945E6,1.6040243E8,8.643731E7,2.595176E7,1.2178957E8,1.5583357E8,1.191031E8,3.2941824E7,1.1455814E7,1.6096768E8,1.5948416E7,1.0611013E8,5.671792E7,7.597043E7,7.523906E4,3.0476083E8,3.8726656E7,1.3865547E8,5.501244E6,1.5241408E7,2.3729648E8,1.1151053E8,0E0,2.161728E7,0E0,7.599514E7,4.7046692E7,4.251981E7,0E0,0E0,3.746291E7,3.0813056E7,0E0,5.5389988E7,0E0,1.2540194E8,2.2570668E7,2.4937968E7,2.679738E7,3.3405934E7,1.9955251E8,0E0,4.42208E5,4.262863E7,1.056072E8,0E0,2.159634E7,4.620051E7,3.973687E7,1.7719328E7,2.8776178E7,2.0592981E8,2.655993E8,5.172915E7,3.799171E7,5.989581E7,1.4024459E8,2.2080115E8,2.7324672E7,1.931439E6,9.35152E6,2.401102E6,1.8865152E7,1.6361426E8,2.1548253E8,4.4532984E7,8.1736056E7,9.7931576E7,9.375046E7,2.5947136E7,4.442439E8,1.449239E8,1.1232512E7,2.2295784E7,3.005952E7,0E0,0E0,8.685722E7,5.3596E7,4.3565264E7,1.0952512E7,0E0,0E0,1.5055258E8,3.51488E8,0E0,0E0,1.0886955E8,1.892448E8,2.387072E8,5.326848E7,1.1014925E9,2.9023258E8,2.2512934E8,1.4473829E8,5.118669E7,4.723986E8,6.765632E6,8.871251E6,3.18968E8,1.3117453E8,7.59945E7,2.235666E8,2.5442688E7,7.343744E6,0E0,2.0647603E8,0E0,0E0,0E0,3.141685E6,1.2853681E8,4.2807597E8,3.8240944E7,0E0,4.1840936E7,2.1581186E7,0E0,4.2544235E6,0E0,0E0,4.871553E6,1.191209E8,5.412559E7,2.936384E7,0E0,1.4182002E7,0E0,0E0,1.06722376E8,1.1086934E8,5.021715E7,2.883987E7,0E0,0E0,0E0,8.072925E5,1.0402301E8,2.6806618E8,0E0,0E0,4.0428224E7,7.917333E7,2.3012992E7,2.5141532E7,1.48496E7,3.3249664E7,0E0,0E0,1.2313902E7,2.5144627E8,4.008544E6,5.236621E7,2.195236E6,3.2615584E7,0E0,7.163944E6,0E0,0E0,1.9392206E7,0E0,9.321267E7,1.5756092E7,0E0,1.6277468E7,0E0,4.309811E7,0E0,0E0,3.3773184E7,5.0228785E6,3.519145E6,2.5987072E7,0E0,2.0182336E7,1.2425398E7,0E0,0E0,1.3667156E7,1.3425738E7,8.834595E5,0E0,0E0,0E0,7.306422E6,0E0,0E0,6.88896E7,4.929267E7,0E0,0E0,3.3270544E7,1.875502E7,4.85056E5,7.678656E6,2.6448688E7,9.331969E6,4.2128784E7,7.204902E7,0E0,2.8206815E6,3.0311222E6,1.5032872E7,5.416458E6,1.7298522E7,1.1225834E8,2.0939472E8,0E0,9.817181E6,2.20288E6,5.1533056E7,1.8788096E7,9.239358E6,6.233088E7,0E0,0E0,6.831728E6,9.903475E7,0E0,3.3185408E7,7.336838E7,0E0,0E0,1.486844E6,4.09504E5,0E0,0E0,0E0,0E0,4.407632E7,5.2642864E7,2.184498E8,1.4148227E8,1.9672852E7,6.57972E6,5.4925456E7,4.6917336E7,3.8712064E7,3.3030644E7,1.1014941E8,1.2933344E7,2.100416E7,1.6769792E7,1.0210752E8,1.2931059E8,2.7324288E7,1.16064104E8,0E0,0E0,1.6982355E6,3.0316624E7,7.388979E7,1.5824826E8,4.535757E7,1.9741645E8,1.410908E6,0E0,2.7677955E6,7.408256E6,0E0,0E0,1.4839014E8,0E0,5.589427E7,1.3017651E8,5.5832576E7,2.0906184E8,4.139895E5,5.3148736E7,2.2252083E8,2.752041E8,4.391936E7,2.4522114E7,6.999278E8,4.2731066E8,1.5189248E8,6.2537664E7,8.991949E7,4.694801E7,5.306663E7,2.4982928E7,8.501082E7,4.809133E7,1.1327603E8,7.4420314E8,0E0,0E0,0E0,2.6107185E6,1.6555115E8,1.65792E5,1.50608E8,2.6452544E7,0E0,0E0,3.461691E7,1.5579546E8,0E0,1.2507392E7,0E0,0E0,0E0,0E0,0E0,0E0,6.237643E7,0E0,2.6569334E8,1.4106157E8,3.677557E7,7.4128E4,6.245352E6,3.55568E5,1.8972524E7,3.520005E7,0E0,0E0,0E0,0E0,1.2253696E8,2.3914752E8,6.052149E6,0E0,1.118011E6,0E0,0E0,9.08611E6,0E0,2.5351744E7,4.135331E7,4.734021E7,1.2638974E8,1.9605888E7,1.8933052E7,1.72233E6,0E0,0E0,8.35361E7,1.0088702E7,5.8912E6,1.3406451E8,0E0,1.4270944E7,8.629832E6,2.408869E7,0E0,3.665235E7,0E0,0E0,0E0,0E0,1.5572736E7,2.9121312E7,0E0,4.566E5,2.320104E7,2.4015462E8,0E0,5.21422E5,0E0,2.3846144E7,0E0,0E0,0E0,2.6250304E7,0E0,4.301384E6,1.7462372E7,6.031224E6,1.089623E8,7.918541E7,0E0,0E0,6.2898175E5,0E0,4.291584E7,3.801971E7,0E0,0E0,0E0,0E0,0E0,0E0,0E0,0E0,0E0,0E0,0E0,0E0,0E0,0E0,0E0,0E0,0E0,0E0,0E0,0E0,0E0,0E0,0E0,0E0,0E0,0E0,0E0,0E0,0E0,0E0,0E0,0E0,0E0,0E0,0E0,0E0,0E0,0E0,0E0,0E0,0E0,0E0,0E0,0E0,0E0,0E0,0E0,0E0,0E0,0E0,0E0,0E0,0E0,0E0,0E0,0E0,0E0,0E0,0E0,0E0,0E0,0E0,0E0,0E0,0E0,0E0,0E0,0E0,0E0,0E0,0E0,0E0,0E0,0E0,0E0,0E0,0E0,0E0,0E0,0E0,0E0,0E0,0E0,0E0,0E0,0E0,0E0,0E0,0E0,0E0,0E0,0E0,0E0,0E0,0E0,0E0,0E0,0E0,0E0,0E0,0E0,0E0,0E0,0E0,0E0,0E0,0E0,0E0,0E0,0E0,0E0,0E0,0E0,0E0,0E0,0E0,0E0,0E0,0E0,0E0,0E0,0E0,0E0,0E0,0E0,0E0,0E0,0E0,0E0,0E0,0E0,0E0,0E0,0E0,0E0,0E0,0E0,0E0,0E0,0E0,0E0,0E0,0E0,0E0,0E0,0E0,0E0,0E0,0E0,0E0,0E0,0E0,0E0,0E0,0E0,0E0,0E0,0E0,0E0,0E0,0E0,0E0,0E0,0E0,0E0,0E0,0E0,0E0,0E0,0E0,0E0,0E0,0E0,0E0,0E0,0E0,0E0,0E0,0E0,0E0,0E0,0E0,0E0,0E0,0E0,0E0,0E0,0E0,0E0,0E0,0E0,0E0,0E0,0E0,0E0,0E0,0E0,0E0,0E0,0E0,0E0,0E0,0E0,0E0,0E0,0E0,0E0,0E0,0E0,0E0,0E0,0E0,0E0,0E0,0E0,0E0,0E0,0E0,0E0,0E0,0E0,0E0,0E0,0E0,0E0,0E0,0E0,0E0,0E0,0E0,0E0,0E0,0E0,0E0,0E0,0E0,0E0,0E0,0E0,0E0,0E0,0E0,0E0,0E0,0E0,0E0,0E0,0E0,0E0,0E0,0E0,0E0,0E0,0E0,0E0,0E0,0E0,0E0,0E0,0E0,0E0,0E0,0E0,0E0,0E0,0E0,0E0,0E0,0E0,0E0,0E0,0E0,0E0,0E0,0E0,0E0,0E0,0E0,0E0,0E0,0E0,0E0,0E0,0E0],"parents":[2147483647,0,0,1,1,2,2,3,3,4,4,5,5,6,6,7,7,8,8,9,9,10,10,11,11,12,12,13,13,14,14,15,15,16,16,17,17,18,18,21,21,22,22,23,23,24,24,25,25,26,26,27,27,28,28,29,29,30,30,31,31,32,32,33,33,34,34,35,35,36,36,37,37,38,38,41,41,43,43,44,44,45,45,46,46,47,47,48,48,49,49,50,50,51,51,52,52,53,53,54,54,55,55,56,56,57,57,58,58,60,60,62,62,65,65,67,67,68,68,69,69,70,70,71,71,72,72,73,73,74,74,76,76,77,77,78,78,79,79,80,80,81,81,82,82,83,83,85,85,86,86,87,87,89,89,90,90,91,91,92,92,93,93,94,94,95,95,96,96,97,97,98,98,99,99,100,100,101,101,102,102,103,103,104,104,105,105,107,107,108,108,109,109,110,110,113,113,114,114,115,115,116,116,117,117,118,118,119,119,120,120,121,121,122,122,123,123,124,124,125,125,126,126,127,127,129,129,130,130,133,133,134,134,135,135,136,136,137,137,140,140,141,141,142,142,143,143,144,144,146,146,147,147,148,148,149,149,150,150,151,151,152,152,153,153,154,154,155,155,156,156,157,157,158,158,160,160,161,161,162,162,163,163,164,164,165,165,166,166,167,167,168,168,169,169,170,170,171,171,172,172,173,173,174,174,175,175,176,176,177,177,178,178,179,179,180,180,181,181,182,182,183,183,184,184,185,185,187,187,189,189,190,190,191,191,194,194,195,195,197,197,199,199,200,200,201,201,202,202,203,203,204,204,206,206,207,207,208,208,210,210,211,211,212,212,213,213,214,214,215,215,216,216,217,217,218,218,219,219,220,220,221,221,222,222,223,223,224,224,225,225,226,226,227,227,228,228,229,229,230,230,231,231,232,232,233,233,234,234,235,235,236,236,237,237,238,238,241,241,242,242,243,243,244,244,247,247,248,248,251,251,252,252,253,253,254,254,255,255,256,256,257,257,258,258,259,259,260,260,261,261,262,262,263,263,264,264,265,265,266,266,267,267,268,268,270,270,274,274,275,275,276,276,277,277,279,279,280,280,282,282,285,285,286,286,287,287,288,288,290,290,293,293,294,294,295,295,296,296,300,300,301,301,302,302,305,305,306,306,307,307,308,308,309,309,310,310,313,313,314,314,315,315,316,316,317,317,318,318,320,320,323,323,325,325,326,326,328,328,330,330,333,333,334,334,335,335,336,336,338,338,339,339,342,342,343,343,344,344,348,348,351,351,352,352,355,355,356,356,357,357,358,358,359,359,360,360,361,361,362,362,364,364,365,365,366,366,367,367,368,368,369,369,370,370,372,372,373,373,374,374,375,375,376,376,377,377,380,380,381,381,383,383,384,384,387,387,388,388,393,393,394,394,395,395,396,396,397,397,398,398,399,399,400,400,401,401,402,402,403,403,404,404,405,405,406,406,407,407,408,408,409,409,410,410,413,413,414,414,415,415,416,416,417,417,418,418,419,419,421,421,422,422,425,425,427,427,428,428,429,429,430,430,431,431,432,432,433,433,434,434,435,435,436,436,437,437,438,438,439,439,440,440,441,441,442,442,443,443,444,444,445,445,446,446,447,447,448,448,452,452,453,453,454,454,455,455,456,456,459,459,460,460,462,462,469,469,471,471,472,472,473,473,474,474,475,475,476,476,477,477,478,478,483,483,484,484,485,485,487,487,490,490,492,492,493,493,494,494,495,495,496,496,497,497,498,498,501,501,502,502,503,503,504,504,506,506,507,507,508,508,510,510,515,515,516,516,518,518,519,519,520,520,522,522,524,524,528,528,530,530,531,531,532,532,533,533,534,534,537,537,539,539,540,540],"right_children":[2,4,6,8,10,12,14,16,18,20,22,24,26,28,30,32,34,36,38,-1,-1,40,42,44,46,48,50,52,54,56,58,60,62,64,66,68,70,72,74,-1,-1,76,-1,78,80,82,84,86,88,90,92,94,96,98,100,102,104,106,108,-1,110,-1,112,-1,-1,114,-1,116,118,120,122,124,126,128,130,-1,132,134,136,138,140,142,144,146,-1,148,150,152,-1,154,156,158,160,162,164,166,168,170,172,174,176,178,180,182,184,186,-1,188,190,192,194,-1,-1,196,198,200,202,204,206,208,210,212,214,216,218,220,222,224,-1,226,228,-1,-1,230,232,234,236,238,-1,-1,240,